{"learner":{"attributes":{"scikit_learn":"{\"_estimator_type\": \"regressor\"}"},"feature_names":[],"feature_types":[],"gradient_booster":{"model":{"gbtree_model_param":{"num_parallel_tree":"1","num_trees":"620"},"iteration_indptr":[0,1,2,3,4,5,6,7,8,9,10,11,12,13,14,15,16,17,18,19,20,21,22,23,24,25,26,27,28,29,30,31,32,33,34,35,36,37,38,39,40,41,42,43,44,45,46,47,48,49,50,51,52,53,54,55,56,57,58,59,60,61,62,63,64,65,66,67,68,69,70,71,72,73,74,75,76,77,78,79,80,81,82,83,84,85,86,87,88,89,90,91,92,93,94,95,96,97,98,99,100,101,102,103,104,105,106,107,108,109,110,111,112,113,114,115,116,117,118,119,120,121,122,123,124,125,126,127,128,129,130,131,132,133,134,135,136,137,138,139,140,141,142,143,144,145,146,147,148,149,150,151,152,153,154,155,156,157,158,159,160,161,162,163,164,165,166,167,168,169,170,171,172,173,174,175,176,177,178,179,180,181,182,183,184,185,186,187,188,189,190,191,192,193,194,195,196,197,198,199,200,201,202,203,204,205,206,207,208,209,210,211,212,213,214,215,216,217,218,219,220,221,222,223,224,225,226,227,228,229,230,231,232,233,234,235,236,237,238,239,240,241,242,243,244,245,246,247,248,249,250,251,252,253,254,255,256,257,258,259,260,261,262,263,264,265,266,267,268,269,270,271,272,273,274,275,276,277,278,279,280,281,282,283,284,285,286,287,288,289,290,291,292,293,294,295,296,297,298,299,300,301,302,303,304,305,306,307,308,309,310,311,312,313,314,315,316,317,318,319,320,321,322,323,324,325,326,327,328,329,330,331,332,333,334,335,336,337,338,339,340,341,342,343,344,345,346,347,348,349,350,351,352,353,354,355,356,357,358,359,360,361,362,363,364,365,366,367,368,369,370,371,372,373,374,375,376,377,378,379,380,381,382,383,384,385,386,387,388,389,390,391,392,393,394,395,396,397,398,399,400,401,402,403,404,405,406,407,408,409,410,411,412,413,414,415,416,417,418,419,420,421,422,423,424,425,426,427,428,429,430,431,432,433,434,435,436,437,438,439,440,441,442,443,444,445,446,447,448,449,450,451,452,453,454,455,456,457,458,459,460,461,462,463,464,465,466,467,468,469,470,471,472,473,474,475,476,477,478,479,480,481,482,483,484,485,486,487,488,489,490,491,492,493,494,495,496,497,498,499,500,501,502,503,504,505,506,507,508,509,510,511,512,513,514,515,516,517,518,519,520,521,522,523,524,525,526,527,528,529,530,531,532,533,534,535,536,537,538,539,540,541,542,543,544,545,546,547,548,549,550,551,552,553,554,555,556,557,558,559,560,561,562,563,564,565,566,567,568,569,570,571,572,573,574,575,576,577,578,579,580,581,582,583,584,585,586,587,588,589,590,591,592,593,594,595,596,597,598,599,600,601,602,603,604,605,606,607,608,609,610,611,612,613,614,615,616,617,618,619,620],"tree_info":[0,0,0,0,0,0,0,0,0,0,0,0,0,0,0,0,0,0,0,0,0,0,0,0,0,0,0,0,0,0,0,0,0,0,0,0,0,0,0,0,0,0,0,0,0,0,0,0,0,0,0,0,0,0,0,0,0,0,0,0,0,0,0,0,0,0,0,0,0,0,0,0,0,0,0,0,0,0,0,0,0,0,0,0,0,0,0,0,0,0,0,0,0,0,0,0,0,0,0,0,0,0,0,0,0,0,0,0,0,0,0,0,0,0,0,0,0,0,0,0,0,0,0,0,0,0,0,0,0,0,0,0,0,0,0,0,0,0,0,0,0,0,0,0,0,0,0,0,0,0,0,0,0,0,0,0,0,0,0,0,0,0,0,0,0,0,0,0,0,0,0,0,0,0,0,0,0,0,0,0,0,0,0,0,0,0,0,0,0,0,0,0,0,0,0,0,0,0,0,0,0,0,0,0,0,0,0,0,0,0,0,0,0,0,0,0,0,0,0,0,0,0,0,0,0,0,0,0,0,0,0,0,0,0,0,0,0,0,0,0,0,0,0,0,0,0,0,0,0,0,0,0,0,0,0,0,0,0,0,0,0,0,0,0,0,0,0,0,0,0,0,0,0,0,0,0,0,0,0,0,0,0,0,0,0,0,0,0,0,0,0,0,0,0,0,0,0,0,0,0,0,0,0,0,0,0,0,0,0,0,0,0,0,0,0,0,0,0,0,0,0,0,0,0,0,0,0,0,0,0,0,0,0,0,0,0,0,0,0,0,0,0,0,0,0,0,0,0,0,0,0,0,0,0,0,0,0,0,0,0,0,0,0,0,0,0,0,0,0,0,0,0,0,0,0,0,0,0,0,0,0,0,0,0,0,0,0,0,0,0,0,0,0,0,0,0,0,0,0,0,0,0,0,0,0,0,0,0,0,0,0,0,0,0,0,0,0,0,0,0,0,0,0,0,0,0,0,0,0,0,0,0,0,0,0,0,0,0,0,0,0,0,0,0,0,0,0,0,0,0,0,0,0,0,0,0,0,0,0,0,0,0,0,0,0,0,0,0,0,0,0,0,0,0,0,0,0,0,0,0,0,0,0,0,0,0,0,0,0,0,0,0,0,0,0,0,0,0,0,0,0,0,0,0,0,0,0,0,0,0,0,0,0,0,0,0,0,0,0,0,0,0,0,0,0,0,0,0,0,0,0,0,0,0,0,0,0,0,0,0,0,0,0,0,0,0,0,0,0,0,0,0,0,0,0,0,0,0,0,0,0,0,0,0,0,0,0,0,0,0,0,0,0,0,0,0,0,0,0,0,0,0,0,0,0,0,0,0,0,0,0,0,0,0,0,0,0,0,0,0,0,0,0,0,0,0,0,0,0,0,0,0,0,0,0,0,0,0,0,0],"trees":[{"base_weights":[-2.2273962E-3,-3.9356118E-1,5.9752774E-1,-6.7359835E-1,7.7789485E-1,4.9733126E-1,1.2554381E0,-1.2147579E0,-3.6478683E-1,4.945741E-1,1.9429854E0,1.7242159E-1,6.9443876E-1,1.0479069E0,1.08573185E-2,-1.3140422E0,3.0666166E-3,-5.337533E-1,7.631533E-1,3.703178E-1,8.0852E-3,6.75757E-3,1.1475694E-2,4.873268E-2,7.2033238E-3,6.0295457E-1,1.0028912E-2,8.3520055E-1,7.996172E-3,-1.4024898E0,-1.3851854E-3,-8.304831E-1,-1.09931685E-1,6.726685E-3,3.764489E-1,2.052968E-1,6.0954764E-3,1.8367645E-1,-5.966844E-1,6.912269E-1,-2.0731536E-3,5.6553894E-1,7.29486E-3,-1.7653091E0,-1.2036697E0,-1.0368735E0,2.8704026E-1,-2.6095945E-1,6.661995E-1,5.931431E-4,3.967952E-3,-1.0844178E-3,4.7182003E-3,2.9205802E-1,-3.173273E-3,-5.6230384E-3,-7.218997E-4,6.026179E-1,1.483104E0,8.8074117E-4,4.638224E-3,-1.6286541E0,-1.1131427E-2,-1.2966046E0,-1.1127432E-3,-1.188444E0,1.554205E-3,-2.142727E-3,7.6968507E-3,-5.6944042E-3,-1.3734505E-1,1.7840374E-3,4.6959836E-3,1.6404974E-1,-4.355204E-3,-5.4251812E-2,5.3573686E-1,5.3262866E-1,6.2197247E-3,1.018525E-2,4.364194E-3,-7.4198386E-3,-9.495671E-3,-7.980011E-3,-5.141224E-3,-6.4451694E-3,-9.0260885E-4,1.2089062E-3,-2.1494732E-3,1.5504576E-3,-2.1445327E-3,-1.3591184E-3,2.8451385E-3,1.5544936E-3,4.3457425E-3,2.229011E-3,5.7468335E-3],"categories":[],"categories_nodes":[],"categories_segments":[],"categories_sizes":[],"default_left":[0,0,0,0,0,0,0,0,0,0,0,0,0,0,0,0,0,0,0,0,0,0,0,0,0,0,0,0,0,0,0,0,0,0,0,0,0,0,0,0,0,0,0,0,0,0,0,0,0,0,0,0,0,0,0,0,0,0,0,0,0,0,0,0,0,0,0,0,0,0,0,0,0,0,0,0,0,0,0,0,0,0,0,0,0,0,0,0,0,0,0,0,0,0,0,0,0],"id":0,"left_children":[1,3,5,7,9,11,13,15,17,19,21,23,25,27,-1,29,-1,31,33,35,-1,-1,-1,37,-1,39,-1,41,-1,43,-1,45,47,-1,49,51,-1,53,55,57,-1,59,-1,61,63,65,67,69,71,-1,-1,73,-1,75,-1,-1,-1,77,79,-1,-1,81,-1,83,-1,85,-1,-1,-1,-1,87,-1,-1,89,-1,91,93,95,-1,-1,-1,-1,-1,-1,-1,-1,-1,-1,-1,-1,-1,-1,-1,-1,-1,-1,-1],"loss_changes":[1.0470831E2,8.865042E1,1.1401352E1,3.6273277E1,1.6900478E1,9.721279E0,3.897934E0,1.449511E1,2.6532022E1,5.6477985E0,1.4923134E0,8.983965E0,1.1072456E1,1.9052258E0,0E0,6.7106476E0,0E0,1.5142792E1,3.8820467E0,5.193838E0,0E0,0E0,0E0,4.6015906E0,0E0,8.054886E0,0E0,2.1219902E0,0E0,4.5268707E0,0E0,1.6490627E1,5.8565016E0,0E0,1.1090155E0,4.9693604E0,0E0,3.9015555E0,2.051863E0,5.499092E0,0E0,1.3165944E0,0E0,8.3717346E-1,3.957901E0,1.2386299E1,1.0104979E1,4.447792E0,5.435927E-1,0E0,0E0,3.6785398E0,0E0,3.342262E0,0E0,0E0,0E0,3.1130543E0,2.3200836E0,0E0,0E0,1.8621445E-1,0E0,2.9213715E0,0E0,5.3403625E0,0E0,0E0,0E0,0E0,4.1408134E0,0E0,0E0,1.8306699E0,0E0,2.174209E0,1.6071682E0,3.4101486E0,0E0,0E0,0E0,0E0,0E0,0E0,0E0,0E0,0E0,0E0,0E0,0E0,0E0,0E0,0E0,0E0,0E0,0E0,0E0],"parents":[2147483647,0,0,1,1,2,2,3,3,4,4,5,5,6,6,7,7,8,8,9,9,10,10,11,11,12,12,13,13,15,15,17,17,18,18,19,19,23,23,25,25,27,27,29,29,31,31,32,32,34,34,35,35,37,37,38,38,39,39,41,41,43,43,44,44,45,45,46,46,47,47,48,48,51,51,53,53,57,57,58,58,61,61,63,63,65,65,70,70,73,73,75,75,76,76,77,77],"right_children":[2,4,6,8,10,12,14,16,18,20,22,24,26,28,-1,30,-1,32,34,36,-1,-1,-1,38,-1,40,-1,42,-1,44,-1,46,48,-1,50,52,-1,54,56,58,-1,60,-1,62,64,66,68,70,72,-1,-1,74,-1,76,-1,-1,-1,78,80,-1,-1,82,-1,84,-1,86,-1,-1,-1,-1,88,-1,-1,90,-1,92,94,96,-1,-1,-1,-1,-1,-1,-1,-1,-1,-1,-1,-1,-1,-1,-1,-1,-1,-1,-1],"split_conditions":[1E0,1E0,1E0,1E0,1E0,1E0,1E0,1E0,1E0,1E0,1E0,1E0,1E0,1E0,1.08573185E-2,1E0,3.0666166E-3,1E0,1E0,1E0,8.0852E-3,6.75757E-3,1.1475694E-2,1E0,7.2033238E-3,1E0,1.0028912E-2,1E0,7.996172E-3,1E0,-1.3851854E-3,1E0,1E0,6.726685E-3,1E0,1E0,6.0954764E-3,1E0,1E0,1E0,-2.0731536E-3,1E0,7.29486E-3,1E0,1E0,1E0,1E0,1E0,1E0,5.931431E-4,3.967952E-3,1E0,4.7182003E-3,1E0,-3.173273E-3,-5.6230384E-3,-7.218997E-4,1E0,1E0,8.8074117E-4,4.638224E-3,1E0,-1.1131427E-2,1E0,-1.1127432E-3,1E0,1.554205E-3,-2.142727E-3,7.6968507E-3,-5.6944042E-3,1E0,1.7840374E-3,4.6959836E-3,1E0,-4.355204E-3,1E0,1E0,1E0,6.2197247E-3,1.018525E-2,4.364194E-3,-7.4198386E-3,-9.495671E-3,-7.980011E-3,-5.141224E-3,-6.4451694E-3,-9.0260885E-4,1.2089062E-3,-2.1494732E-3,1.5504576E-3,-2.1445327E-3,-1.3591184E-3,2.8451385E-3,1.5544936E-3,4.3457425E-3,2.229011E-3,5.7468335E-3],"split_indices":[769,544,273,822,265,1114,295,39,26,596,79,68,127,440,0,691,0,682,682,999,0,0,0,184,0,698,0,868,0,601,0,498,790,0,177,389,0,685,219,662,0,104,0,106,994,323,531,494,662,0,0,1150,0,43,0,0,0,974,58,0,0,580,0,531,0,617,0,0,0,0,869,0,0,1025,0,1148,591,507,0,0,0,0,0,0,0,0,0,0,0,0,0,0,0,0,0,0,0],"split_type":[0,0,0,0,0,0,0,0,0,0,0,0,0,0,0,0,0,0,0,0,0,0,0,0,0,0,0,0,0,0,0,0,0,0,0,0,0,0,0,0,0,0,0,0,0,0,0,0,0,0,0,0,0,0,0,0,0,0,0,0,0,0,0,0,0,0,0,0,0,0,0,0,0,0,0,0,0,0,0,0,0,0,0,0,0,0,0,0,0,0,0,0,0,0,0,0,0],"sum_hessian":[4.46E2,2.7E2,1.76E2,2.18E2,5.2E1,1.53E2,2.3E1,7.9E1,1.39E2,4.2E1,1E1,5.8E1,9.5E1,1.9E1,4E0,7.5E1,4E0,1.21E2,1.8E1,3.8E1,4E0,4E0,6E0,5.3E1,5E0,8.9E1,6E0,1.4E1,5E0,6.9E1,6E0,7.1E1,5E1,7E0,1.1E1,3.2E1,6E0,4.4E1,9E0,8.2E1,7E0,1E1,4E0,2.4E1,4.5E1,6E1,1.1E1,4.2E1,8E0,7E0,4E0,2.5E1,7E0,3.9E1,5E0,4E0,5E0,7.4E1,8E0,5E0,5E0,1.9E1,5E0,4.1E1,4E0,5.4E1,6E0,7E0,4E0,5E0,3.7E1,4E0,4E0,2.1E1,4E0,1.6E1,2.3E1,6.7E1,7E0,4E0,4E0,1.3E1,6E0,1.9E1,2.2E1,4.9E1,5E0,1.6E1,2.1E1,1.7E1,4E0,1.2E1,4E0,1.4E1,9E0,5.9E1,8E0],"tree_param":{"num_deleted":"0","num_feature":"1163","num_nodes":"97","size_leaf_vector":"1"}},{"base_weights":[-5.1198963E-2,-4.480955E-1,4.5365688E-1,-6.855203E-1,4.8920727E-1,4.9880487E-1,-5.5784076E-3,-7.7362996E-1,7.031245E-1,3.4272593E-1,8.36304E-3,5.370073E-1,-5.57709E-3,-1.0207086E0,-3.4289047E-1,6.3714985E-4,5.070155E-3,-4.9361536E-1,6.42781E-1,5.007301E-1,1.0044119E-2,-1.0820359E0,2.9301497E-3,-4.6055186E-1,4.6605954E-1,-8.393887E-4,-3.315657E-3,3.3599457E-1,1.0554496E0,3.7961024E-1,8.440529E-1,-1.134766E0,1.2508823E-3,-6.0511017E-1,1.23505384E-1,-2.8128573E-4,4.9857744E-3,5.5738897E-3,1.0129882E-1,6.543685E-3,3.0813941E-3,3.357186E-1,6.9909147E-3,5.183574E-1,1.8002256E0,-1.1856571E0,5.1421777E-4,-4.35265E-1,-9.3419826E-1,2.2352152E-3,-1.2484845E-3,-1.4135271E-1,3.5836273E-3,2.0893821E-1,6.696515E-1,6.6614527E-1,4.3800622E-2,1.039936E-2,7.6168505E-3,-6.406717E-3,-3.3963933E-3,-1.2578066E-3,-5.0759236E-3,-5.484707E-3,-3.3128094E-3,-1.5744208E-3,9.377289E-5,1.5665551E-3,-2.211948E-3,3.9127585E-3,-6.392561E-4,1.7141042E-3,5.6737885E-3,2.7766195E-3,-2.2432245E-3],"categories":[],"categories_nodes":[],"categories_segments":[],"categories_sizes":[],"default_left":[0,0,0,0,0,0,0,0,0,0,0,0,0,0,0,0,0,0,0,0,0,0,0,0,0,0,0,0,0,0,0,0,0,0,0,0,0,0,0,0,0,0,0,0,0,0,0,0,0,0,0,0,0,0,0,0,0,0,0,0,0,0,0,0,0,0,0,0,0,0,0,0,0,0,0],"id":1,"left_children":[1,3,5,7,9,11,-1,13,15,17,-1,19,-1,21,23,-1,-1,25,27,29,-1,31,-1,33,35,-1,-1,37,39,41,43,45,-1,47,49,-1,-1,-1,51,-1,-1,53,-1,55,57,59,-1,61,63,-1,-1,65,-1,67,69,71,73,-1,-1,-1,-1,-1,-1,-1,-1,-1,-1,-1,-1,-1,-1,-1,-1,-1,-1],"loss_changes":[8.3396126E1,5.1923565E1,1.2977787E1,2.2830124E1,7.940815E0,1.0995041E1,0E0,1.8487656E1,1.8795538E0,1.060898E1,0E0,8.987907E0,0E0,1.1051834E1,6.1221876E0,0E0,0E0,5.331445E-1,3.7869015E0,6.9401894E0,0E0,7.6249695E0,0E0,4.7837954E0,2.330267E0,0E0,0E0,3.1965272E0,1.2175379E0,5.447378E0,1.3448841E1,6.59523E0,0E0,2.3670425E0,1.3677326E0,0E0,0E0,0E0,2.1632686E0,0E0,0E0,5.040346E0,0E0,2.2598677E0,2.4491501E-1,4.5527496E0,0E0,3.0764856E0,4.4951153E-1,0E0,0E0,3.0566546E-1,0E0,5.992318E0,3.044344E0,3.6420507E0,2.0740943E0,0E0,0E0,0E0,0E0,0E0,0E0,0E0,0E0,0E0,0E0,0E0,0E0,0E0,0E0,0E0,0E0,0E0,0E0],"parents":[2147483647,0,0,1,1,2,2,3,3,4,4,5,5,7,7,8,8,9,9,11,11,13,13,14,14,17,17,18,18,19,19,21,21,23,23,24,24,27,27,28,28,29,29,30,30,31,31,33,33,34,34,38,38,41,41,43,43,44,44,45,45,47,47,48,48,51,51,53,53,54,54,55,55,56,56],"right_children":[2,4,6,8,10,12,-1,14,16,18,-1,20,-1,22,24,-1,-1,26,28,30,-1,32,-1,34,36,-1,-1,38,40,42,44,46,-1,48,50,-1,-1,-1,52,-1,-1,54,-1,56,58,60,-1,62,64,-1,-1,66,-1,68,70,72,74,-1,-1,-1,-1,-1,-1,-1,-1,-1,-1,-1,-1,-1,-1,-1,-1,-1,-1],"split_conditions":[1E0,1E0,1E0,1E0,1E0,1E0,-5.5784076E-3,1E0,1E0,1E0,8.36304E-3,1E0,-5.57709E-3,1E0,1E0,6.3714985E-4,5.070155E-3,1E0,1E0,1E0,1.0044119E-2,1E0,2.9301497E-3,1E0,1E0,-8.393887E-4,-3.315657E-3,1E0,1E0,1E0,1E0,1E0,1.2508823E-3,1E0,1E0,-2.8128573E-4,4.9857744E-3,5.5738897E-3,1E0,6.543685E-3,3.0813941E-3,1E0,6.9909147E-3,1E0,1E0,1E0,5.1421777E-4,1E0,1E0,2.2352152E-3,-1.2484845E-3,1E0,3.5836273E-3,1E0,1E0,1E0,1E0,1.039936E-2,7.6168505E-3,-6.406717E-3,-3.3963933E-3,-1.2578066E-3,-5.0759236E-3,-5.484707E-3,-3.3128094E-3,-1.5744208E-3,9.377289E-5,1.5665551E-3,-2.211948E-3,3.9127585E-3,-6.392561E-4,1.7141042E-3,5.6737885E-3,2.7766195E-3,-2.2432245E-3],"split_indices":[397,768,506,25,265,995,0,840,837,1048,0,1093,0,602,623,0,0,840,306,920,0,107,0,415,622,0,0,92,184,961,868,603,0,1042,277,0,0,0,106,0,0,1028,0,531,106,203,0,591,344,0,0,754,0,184,357,360,360,0,0,0,0,0,0,0,0,0,0,0,0,0,0,0,0,0,0],"split_type":[0,0,0,0,0,0,0,0,0,0,0,0,0,0,0,0,0,0,0,0,0,0,0,0,0,0,0,0,0,0,0,0,0,0,0,0,0,0,0,0,0,0,0,0,0,0,0,0,0,0,0,0,0,0,0,0,0,0,0,0,0,0,0,0,0,0,0,0,0,0,0,0,0,0,0],"sum_hessian":[4.16E2,2.33E2,1.83E2,1.86E2,4.7E1,1.78E2,5E0,1.75E2,1.1E1,4.2E1,5E0,1.74E2,4E0,1.11E2,6.4E1,4E0,7E0,1.1E1,3.1E1,1.7E2,4E0,1.07E2,4E0,5.6E1,8E0,4E0,7E0,1.8E1,1.3E1,1.26E2,4.4E1,1.03E2,4E0,4.5E1,1.1E1,4E0,4E0,4E0,1.4E1,8E0,5E0,1.21E2,5E0,3.3E1,1.1E1,9.9E1,4E0,3E1,1.5E1,6E0,5E0,1E1,4E0,8.8E1,3.3E1,2.5E1,8E0,5E0,6E0,8.3E1,1.6E1,2.3E1,7E0,9E0,6E0,5E0,5E0,7.6E1,1.2E1,2.9E1,4E0,1.5E1,1E1,4E0,4E0],"tree_param":{"num_deleted":"0","num_feature":"1163","num_nodes":"75","size_leaf_vector":"1"}},{"base_weights":[4.295326E-2,-7.001511E-1,3.68622E-1,-1.1861888E0,-1.9656755E-1,1.5484953E-1,8.287466E-1,-1.3537356E0,-6.523185E-1,-4.2135635E-1,6.754756E-1,2.382782E-1,-1.1572253E0,4.4204605E-1,1.124941E0,-1.6127744E0,-1.106195E0,2.1586305E-4,-1.074087E0,-5.6492233E-1,4.3421676E-3,1.2887885E-1,7.570797E-3,-1.5086134E-1,4.7964036E-1,-2.9039853E-3,-8.505709E-3,-2.4458575E-1,8.8400483E-1,1.286363E0,-2.0167641E-3,-1.0013301E-2,-1.3161983E0,-9.2739713E-1,-1.0114164E-2,-4.3137437E-3,-6.7108697E-3,-6.652587E-1,2.2949683E-3,-2.2101367E-3,3.5839383E-3,-3.92518E-1,4.8418623E-1,5.447974E-1,-6.6259257E-3,1.6126287E-1,-3.8647333E-3,1.1437058E0,-7.0330163E-4,6.753529E-1,1.4634783E0,-8.395241E-3,-1.0164943E0,-6.789144E-1,-8.630825E-3,-5.0008374E-1,-1.3422143E0,-1.0426688E0,-8.117648E-2,4.080296E-2,1.1303493E0,4.2298898E-1,9.312341E-1,-3.0499912E-4,2.2697437E-3,1.425484E0,1.3540025E-3,5.745665E-3,1.2731474E-3,1.6014066E0,3.6136908E-3,-3.2808303E-3,-6.65942E-3,-2.477737E-1,-1.1447034E0,-2.7804384E-1,-9.502203E-1,-4.8601E-3,-8.297629E-3,-8.1331277E-1,-8.649562E-3,2.2322711E-1,-5.114677E-1,1.677877E-1,-9.545926E-4,3.96935E-3,7.095565E-3,3.509991E-1,6.0878266E-3,1.2157961E0,2.3853585E-1,8.166384E-3,4.0400433E-3,1.7250737E0,4.6046292E-3,-0E0,-2.7405194E-3,-3.8567376E-3,-7.349968E-3,-2.4492766E-3,2.2063128E-4,-6.385285E-3,-3.6823328E-3,-2.2673882E-3,-7.859941E-3,2.0767946E-3,-1.8574393E-3,-3.8524931E-3,9.107003E-4,1.746586E-3,-0E0,4.8697842E-4,2.5050717E-3,4.9715447E-3,9.908587E-3,1.9338573E-3,3.216814E-4,9.113594E-3,6.8075233E-3],"categories":[],"categories_nodes":[],"categories_segments":[],"categories_sizes":[],"default_left":[0,0,0,0,0,0,0,0,0,0,0,0,0,0,0,0,0,0,0,0,0,0,0,0,0,0,0,0,0,0,0,0,0,0,0,0,0,0,0,0,0,0,0,0,0,0,0,0,0,0,0,0,0,0,0,0,0,0,0,0,0,0,0,0,0,0,0,0,0,0,0,0,0,0,0,0,0,0,0,0,0,0,0,0,0,0,0,0,0,0,0,0,0,0,0,0,0,0,0,0,0,0,0,0,0,0,0,0,0,0,0,0,0,0,0,0,0,0,0],"id":2,"left_children":[1,3,5,7,9,11,13,15,17,19,21,23,25,27,29,31,33,-1,35,37,-1,39,-1,41,43,-1,-1,45,47,49,-1,-1,51,53,-1,-1,-1,55,-1,-1,-1,57,59,61,-1,63,-1,65,-1,67,69,-1,71,73,-1,75,77,79,81,83,85,87,89,-1,-1,91,-1,-1,-1,93,-1,-1,-1,95,97,99,101,-1,-1,103,-1,105,107,109,-1,-1,-1,111,-1,113,115,-1,-1,117,-1,-1,-1,-1,-1,-1,-1,-1,-1,-1,-1,-1,-1,-1,-1,-1,-1,-1,-1,-1,-1,-1,-1,-1,-1],"loss_changes":[1.03359116E2,3.170583E1,2.9129269E1,5.6585236E0,1.2572708E1,2.2183939E1,1.0598915E1,2.809555E0,4.8125033E0,9.486175E0,5.8501E0,1.7983185E1,3.5064125E0,1.2546764E1,1.3224617E1,2.2489777E0,3.846323E0,0E0,2.743168E-1,4.783703E0,0E0,2.7730694E0,0E0,1.1229614E1,1.3895954E1,0E0,0E0,3.5153852E0,6.7782116E0,4.9298477E0,0E0,0E0,1.1400204E0,4.0705605E0,0E0,0E0,0E0,4.488165E0,0E0,0E0,0E0,1.0647151E1,5.65726E0,5.2195854E0,0E0,6.272099E-1,0E0,4.765196E0,0E0,2.0673585E0,3.4827576E0,0E0,6.68911E-1,3.2906513E0,0E0,3.2803621E0,5.728111E-1,2.3446007E0,4.7636824E0,3.5733643E-1,4.9157238E-1,4.809948E0,5.1927032E0,0E0,0E0,1.6038208E0,0E0,0E0,0E0,2.2397385E0,0E0,0E0,0E0,6.730477E-1,6.852188E-1,1.6153063E0,5.1511E-1,0E0,0E0,3.3376884E0,0E0,2.430017E0,2.775586E0,2.7225527E-1,0E0,0E0,0E0,2.9930477E0,0E0,2.7972984E0,1.6941369E-1,0E0,0E0,4.1539E-1,0E0,0E0,0E0,0E0,0E0,0E0,0E0,0E0,0E0,0E0,0E0,0E0,0E0,0E0,0E0,0E0,0E0,0E0,0E0,0E0,0E0,0E0,0E0,0E0,0E0],"parents":[2147483647,0,0,1,1,2,2,3,3,4,4,5,5,6,6,7,7,8,8,9,9,10,10,11,11,12,12,13,13,14,14,15,15,16,16,18,18,19,19,21,21,23,23,24,24,27,27,28,28,29,29,32,32,33,33,37,37,41,41,42,42,43,43,45,45,47,47,49,49,50,50,52,52,53,53,55,55,56,56,57,57,58,58,59,59,60,60,61,61,62,62,65,65,69,69,73,73,74,74,75,75,76,76,79,79,81,81,82,82,83,83,87,87,89,89,90,90,93,93],"right_children":[2,4,6,8,10,12,14,16,18,20,22,24,26,28,30,32,34,-1,36,38,-1,40,-1,42,44,-1,-1,46,48,50,-1,-1,52,54,-1,-1,-1,56,-1,-1,-1,58,60,62,-1,64,-1,66,-1,68,70,-1,72,74,-1,76,78,80,82,84,86,88,90,-1,-1,92,-1,-1,-1,94,-1,-1,-1,96,98,100,102,-1,-1,104,-1,106,108,110,-1,-1,-1,112,-1,114,116,-1,-1,118,-1,-1,-1,-1,-1,-1,-1,-1,-1,-1,-1,-1,-1,-1,-1,-1,-1,-1,-1,-1,-1,-1,-1,-1,-1],"split_conditions":[1E0,1E0,1E0,1E0,1E0,1E0,1E0,1E0,1E0,1E0,1E0,1E0,1E0,1E0,1E0,1E0,1E0,2.1586305E-4,1E0,1E0,4.3421676E-3,1E0,7.570797E-3,1E0,1E0,-2.9039853E-3,-8.505709E-3,1E0,1E0,1E0,-2.0167641E-3,-1.0013301E-2,1E0,1E0,-1.0114164E-2,-4.3137437E-3,-6.7108697E-3,1E0,2.2949683E-3,-2.2101367E-3,3.5839383E-3,1E0,1E0,1E0,-6.6259257E-3,1E0,-3.8647333E-3,1E0,-7.0330163E-4,1E0,1E0,-8.395241E-3,1E0,1E0,-8.630825E-3,1E0,1E0,1E0,1E0,1E0,1E0,1E0,1E0,-3.0499912E-4,2.2697437E-3,1E0,1.3540025E-3,5.745665E-3,1.2731474E-3,1E0,3.6136908E-3,-3.2808303E-3,-6.65942E-3,1E0,1E0,1E0,1E0,-4.8601E-3,-8.297629E-3,1E0,-8.649562E-3,1E0,1E0,1E0,-9.545926E-4,3.96935E-3,7.095565E-3,1E0,6.0878266E-3,1E0,1E0,8.166384E-3,4.0400433E-3,1E0,4.6046292E-3,-0E0,-2.7405194E-3,-3.8567376E-3,-7.349968E-3,-2.4492766E-3,2.2063128E-4,-6.385285E-3,-3.6823328E-3,-2.2673882E-3,-7.859941E-3,2.0767946E-3,-1.8574393E-3,-3.8524931E-3,9.107003E-4,1.746586E-3,-0E0,4.8697842E-4,2.5050717E-3,4.9715447E-3,9.908587E-3,1.9338573E-3,3.216814E-4,9.113594E-3,6.8075233E-3],"split_indices":[279,822,390,476,397,206,397,655,441,603,391,190,591,768,470,662,1121,0,689,611,0,328,0,1073,171,0,0,580,789,277,0,0,601,496,0,0,0,1105,0,0,0,43,868,7,0,524,0,317,0,528,301,0,365,904,0,706,365,706,184,863,391,301,184,0,0,878,0,0,0,7,0,0,0,633,601,662,374,0,0,668,0,662,219,39,0,0,0,764,0,1055,451,0,0,369,0,0,0,0,0,0,0,0,0,0,0,0,0,0,0,0,0,0,0,0,0,0,0,0,0],"split_type":[0,0,0,0,0,0,0,0,0,0,0,0,0,0,0,0,0,0,0,0,0,0,0,0,0,0,0,0,0,0,0,0,0,0,0,0,0,0,0,0,0,0,0,0,0,0,0,0,0,0,0,0,0,0,0,0,0,0,0,0,0,0,0,0,0,0,0,0,0,0,0,0,0,0,0,0,0,0,0,0,0,0,0,0,0,0,0,0,0,0,0,0,0,0,0,0,0,0,0,0,0,0,0,0,0,0,0,0,0,0,0,0,0,0,0,0,0,0,0],"sum_hessian":[4.27E2,1.3E2,2.97E2,6.6E1,6.4E1,2.03E2,9.4E1,5E1,1.6E1,5.1E1,1.3E1,1.91E2,1.2E1,4.1E1,5.3E1,2.4E1,2.6E1,6E0,1E1,4.6E1,5E0,8E0,5E0,7.3E1,1.18E2,6E0,6E0,1.6E1,2.5E1,4.8E1,5E0,1E1,1.4E1,2.2E1,4E0,6E0,4E0,4.2E1,4E0,4E0,4E0,5.3E1,2E1,1.14E2,4E0,9E0,7E0,2E1,5E0,1.1E1,3.7E1,6E0,8E0,1.7E1,5E0,3.4E1,8E0,1.7E1,3.6E1,1.2E1,8E0,8.7E1,2.7E1,5E0,4E0,1.5E1,5E0,5E0,6E0,3.1E1,6E0,4E0,4E0,9E0,8E0,2.3E1,1.1E1,4E0,4E0,1.3E1,4E0,2.1E1,1.5E1,8E0,4E0,4E0,4E0,8E1,7E0,1.9E1,8E0,1.1E1,4E0,2.6E1,5E0,5E0,4E0,4E0,4E0,1.4E1,9E0,4E0,7E0,9E0,4E0,1.6E1,5E0,1.1E1,4E0,4E0,4E0,3E1,5E1,1.5E1,4E0,4E0,4E0,2E1,6E0],"tree_param":{"num_deleted":"0","num_feature":"1163","num_nodes":"119","size_leaf_vector":"1"}},{"base_weights":[1.1269521E-3,-6.497423E-1,3.2362306E-1,-7.905974E-1,4.7862846E-1,2.3822209E-2,5.4605097E-1,-9.1135854E-1,3.7779891E-1,7.68661E-1,-7.2903966E-4,9.710654E-2,-1.0605908E-2,6.309438E-1,-2.0244704E-1,-9.865591E-1,5.825794E-3,-7.751452E-4,5.641835E-3,5.254057E-3,1.2058264E-3,1.7519717E-1,-6.822125E-3,6.7701983E-1,-5.0870827E-3,-5.6777906E-1,2.0028968E-1,-1.2008035E0,-2.6464584E-1,-6.083315E-2,5.572115E-1,5.546153E-1,1.1686236E0,-6.022685E-3,1.0899398E-3,3.2520562E-3,-1.1728549E-3,-1.2936163E0,1.5032479E-3,2.614644E-3,-4.9576014E-3,-1.8180647E-1,8.721177E-1,-1.8164665E-1,7.237387E-1,4.636825E-1,1.0498813E0,1.0133782E-2,8.8390833E-1,-1.4117458E0,-7.080431E-1,2.393918E-1,-4.2466805E-3,8.412617E-2,-4.5836133E-1,2.002768E-3,6.5113227E-3,-3.772757E-3,1.8777127E-3,1.0569254E0,1.9051874E-1,3.9969528E-1,6.42281E-3,1.4584644E0,6.206843E-1,7.2520286E-1,6.373779E-3,-7.3809484E-3,-1.7482054E-3,-7.3133884E-3,-1.9325893E-3,8.828124E-5,3.2881268E-3,-1.391237E-4,4.347468E-3,-3.4224663E-3,1.5201779E-3,3.8381193E-3,1.1440806E-2,-1.140753E-3,4.7500813E-3,1.6821399E-3,6.4148796E-3,8.590589E-3,5.3988127E-3,1.0073163E-3,5.534349E-3,4.6532466E-3,2.2001818E-3],"categories":[],"categories_nodes":[],"categories_segments":[],"categories_sizes":[],"default_left":[0,0,0,0,0,0,0,0,0,0,0,0,0,0,0,0,0,0,0,0,0,0,0,0,0,0,0,0,0,0,0,0,0,0,0,0,0,0,0,0,0,0,0,0,0,0,0,0,0,0,0,0,0,0,0,0,0,0,0,0,0,0,0,0,0,0,0,0,0,0,0,0,0,0,0,0,0,0,0,0,0,0,0,0,0,0,0,0,0],"id":3,"left_children":[1,3,5,7,9,11,13,15,17,19,-1,21,-1,23,25,27,-1,-1,-1,-1,-1,29,-1,31,-1,33,35,37,39,41,43,45,47,-1,-1,-1,-1,49,-1,51,-1,53,55,57,59,61,63,-1,65,67,69,71,-1,73,75,-1,-1,-1,-1,77,79,81,-1,83,85,87,-1,-1,-1,-1,-1,-1,-1,-1,-1,-1,-1,-1,-1,-1,-1,-1,-1,-1,-1,-1,-1,-1,-1],"loss_changes":[9.19525E1,2.3125336E1,1.9496733E1,1.8294113E1,2.978475E0,1.951853E1,1.0729591E1,1.8385979E1,4.9369655E0,1.5199904E0,0E0,1.374705E1,0E0,1.1516785E1,2.557694E0,1.7339897E1,0E0,0E0,0E0,0E0,0E0,1.0422608E1,0E0,8.644524E0,0E0,4.6608706E0,1.6351E0,1.2258629E1,5.1522536E0,7.9833364E0,5.483984E0,5.145046E0,6.6902504E0,0E0,0E0,0E0,0E0,5.4040985E0,0E0,3.8228512E0,0E0,4.675454E0,1.4502063E0,2.6452947E0,6.2904186E0,5.0673714E0,2.9118042E0,0E0,1.1132164E0,4.4587708E0,3.211866E0,1.3433943E0,0E0,2.8942554E0,5.413948E0,0E0,0E0,0E0,0E0,7.443939E0,4.564795E0,5.0257616E0,0E0,4.781971E-1,1.7243891E0,7.89073E-1,0E0,0E0,0E0,0E0,0E0,0E0,0E0,0E0,0E0,0E0,0E0,0E0,0E0,0E0,0E0,0E0,0E0,0E0,0E0,0E0,0E0,0E0,0E0],"parents":[2147483647,0,0,1,1,2,2,3,3,4,4,5,5,6,6,7,7,8,8,9,9,11,11,13,13,14,14,15,15,21,21,23,23,25,25,26,26,27,27,28,28,29,29,30,30,31,31,32,32,37,37,39,39,41,41,42,42,43,43,44,44,45,45,46,46,48,48,49,49,50,50,51,51,53,53,54,54,59,59,60,60,61,61,63,63,64,64,65,65],"right_children":[2,4,6,8,10,12,14,16,18,20,-1,22,-1,24,26,28,-1,-1,-1,-1,-1,30,-1,32,-1,34,36,38,40,42,44,46,48,-1,-1,-1,-1,50,-1,52,-1,54,56,58,60,62,64,-1,66,68,70,72,-1,74,76,-1,-1,-1,-1,78,80,82,-1,84,86,88,-1,-1,-1,-1,-1,-1,-1,-1,-1,-1,-1,-1,-1,-1,-1,-1,-1,-1,-1,-1,-1,-1,-1],"split_conditions":[1E0,1E0,1E0,1E0,1E0,1E0,1E0,1E0,1E0,1E0,-7.2903966E-4,1E0,-1.0605908E-2,1E0,1E0,1E0,5.825794E-3,-7.751452E-4,5.641835E-3,5.254057E-3,1.2058264E-3,1E0,-6.822125E-3,1E0,-5.0870827E-3,1E0,1E0,1E0,1E0,1E0,1E0,1E0,1E0,-6.022685E-3,1.0899398E-3,3.2520562E-3,-1.1728549E-3,1E0,1.5032479E-3,1E0,-4.9576014E-3,1E0,1E0,1E0,1E0,1E0,1E0,1.0133782E-2,1E0,1E0,1E0,1E0,-4.2466805E-3,1E0,1E0,2.002768E-3,6.5113227E-3,-3.772757E-3,1.8777127E-3,1E0,1E0,1E0,6.42281E-3,1E0,1E0,1E0,6.373779E-3,-7.3809484E-3,-1.7482054E-3,-7.3133884E-3,-1.9325893E-3,8.828124E-5,3.2881268E-3,-1.391237E-4,4.347468E-3,-3.4224663E-3,1.5201779E-3,3.8381193E-3,1.1440806E-2,-1.140753E-3,4.7500813E-3,1.6821399E-3,6.4148796E-3,8.590589E-3,5.3988127E-3,1.0073163E-3,5.534349E-3,4.6532466E-3,2.2001818E-3],"split_indices":[279,397,769,544,622,980,863,564,1086,524,0,506,0,518,184,142,0,0,0,0,0,768,0,1074,0,580,524,39,1055,0,391,295,391,0,0,0,0,1048,0,479,0,1114,26,133,1060,377,1083,0,648,528,601,633,0,553,390,0,0,0,0,277,274,201,0,21,817,423,0,0,0,0,0,0,0,0,0,0,0,0,0,0,0,0,0,0,0,0,0,0,0],"split_type":[0,0,0,0,0,0,0,0,0,0,0,0,0,0,0,0,0,0,0,0,0,0,0,0,0,0,0,0,0,0,0,0,0,0,0,0,0,0,0,0,0,0,0,0,0,0,0,0,0,0,0,0,0,0,0,0,0,0,0,0,0,0,0,0,0,0,0,0,0,0,0,0,0,0,0,0,0,0,0,0,0,0,0,0,0,0,0,0,0],"sum_hessian":[4.38E2,1.45E2,2.93E2,1.29E2,1.6E1,1.25E2,1.68E2,1.17E2,1.2E1,1.1E1,5E0,1.21E2,4E0,1.51E2,1.7E1,1.13E2,4E0,7E0,5E0,7E0,4E0,1.15E2,6E0,1.47E2,4E0,9E0,8E0,8.7E1,2.6E1,7.1E1,4.4E1,1.18E2,2.9E1,5E0,4E0,4E0,4E0,8.2E1,5E0,1.9E1,7E0,6.3E1,8E0,8E0,3.6E1,1E2,1.8E1,7E0,2.2E1,6.8E1,1.4E1,1.5E1,4E0,3.2E1,3.1E1,4E0,4E0,4E0,4E0,2.2E1,1.4E1,9.3E1,7E0,9E0,9E0,1.6E1,6E0,6.4E1,4E0,4E0,1E1,1E1,5E0,2.8E1,4E0,2.4E1,7E0,1.8E1,4E0,9E0,5E0,8.7E1,6E0,5E0,4E0,5E0,4E0,9E0,7E0],"tree_param":{"num_deleted":"0","num_feature":"1163","num_nodes":"89","size_leaf_vector":"1"}},{"base_weights":[-1.12958975E-1,-1.0710878E0,1.8252303E-1,-1.2470146E0,8.089885E-3,-2.4743746E-1,4.9500024E-1,-1.4042184E0,-5.352893E-1,-3.307181E-1,7.5281197E-3,4.3406802E-1,1.5443137E0,-1.5208604E0,-3.9602828E-1,-7.982142E-1,4.1406488E-4,-4.567985E-1,4.9291268E-1,1.6150697E-1,6.548051E-1,1.1287238E-2,5.1306835E-3,-1.5903758E0,-3.0738115E-3,-4.5766444E-3,5.6392746E-4,-1.0498096E0,-1.307726E-3,-6.032285E-1,3.5539883E-1,5.12996E-3,1.0511536E-1,2.2586332E-1,-5.005531E-3,5.853169E-1,8.341485E-3,-1.4748175E0,-2.1739898E0,-6.6115367E-3,-3.6578032E-3,-4.8914096E-1,-9.99374E-3,-1.9083856E-2,6.265523E-3,-1.651213E-4,1.2869484E-3,2.8783005E-1,-4.170467E-3,5.0893766E-1,8.138665E-3,-1.5732144E0,-1.201689E-3,-8.426913E-3,-1.2266089E-2,-8.755143E-1,-2.5464967E-1,-1.3271796E-3,1.0702016E-3,-2.8292157E-2,4.6111605E-1,1.1420759E0,3.9205E-1,-8.1877895E-3,-4.0345956E-3,-4.9501522E-3,-1.061452E-4,-4.3689986E-4,-4.207653E-3,-1.4366839E-3,6.42692E-3,1.7644401E-3,5.19502E-3,3.0462996E-3,9.748618E-3,6.9161213E-4,3.1440817E-3],"categories":[],"categories_nodes":[],"categories_segments":[],"categories_sizes":[],"default_left":[0,0,0,0,0,0,0,0,0,0,0,0,0,0,0,0,0,0,0,0,0,0,0,0,0,0,0,0,0,0,0,0,0,0,0,0,0,0,0,0,0,0,0,0,0,0,0,0,0,0,0,0,0,0,0,0,0,0,0,0,0,0,0,0,0,0,0,0,0,0,0,0,0,0,0,0,0],"id":4,"left_children":[1,3,5,7,-1,9,11,13,15,17,-1,19,21,23,25,27,-1,29,31,33,35,-1,-1,37,-1,-1,-1,39,-1,41,43,-1,45,47,-1,49,-1,51,53,-1,-1,55,-1,57,-1,-1,-1,59,-1,61,-1,63,-1,-1,-1,65,67,-1,-1,69,71,73,75,-1,-1,-1,-1,-1,-1,-1,-1,-1,-1,-1,-1,-1,-1],"loss_changes":[1.190274E2,4.7053215E1,4.31734E1,1.0181213E1,0E0,1.9676815E1,1.1668228E1,8.730576E0,2.844699E0,1.3425754E1,0E0,1.0516937E1,3.2293854E0,4.009552E0,2.2168536E0,1.4980097E0,0E0,1.337397E1,3.4308147E0,5.8769617E0,6.554554E0,0E0,0E0,3.633545E0,0E0,0E0,0E0,4.3606853E-1,0E0,1.4837742E1,5.8529177E0,0E0,2.3183699E-1,4.91161E0,0E0,6.9939556E0,0E0,6.262398E0,6.226692E-1,0E0,0E0,7.8663216E0,0E0,7.0483726E-1,0E0,0E0,0E0,3.931881E0,0E0,6.126423E0,0E0,2.0868912E0,0E0,0E0,0E0,3.152523E0,5.3249435E0,0E0,0E0,8.496046E0,2.7316303E0,5.3071365E0,4.259284E0,0E0,0E0,0E0,0E0,0E0,0E0,0E0,0E0,0E0,0E0,0E0,0E0,0E0,0E0],"parents":[2147483647,0,0,1,1,2,2,3,3,5,5,6,6,7,7,8,8,9,9,11,11,12,12,13,13,14,14,15,15,17,17,18,18,19,19,20,20,23,23,27,27,29,29,30,30,32,32,33,33,35,35,37,37,38,38,41,41,43,43,47,47,49,49,51,51,55,55,56,56,59,59,60,60,61,61,62,62],"right_children":[2,4,6,8,-1,10,12,14,16,18,-1,20,22,24,26,28,-1,30,32,34,36,-1,-1,38,-1,-1,-1,40,-1,42,44,-1,46,48,-1,50,-1,52,54,-1,-1,56,-1,58,-1,-1,-1,60,-1,62,-1,64,-1,-1,-1,66,68,-1,-1,70,72,74,76,-1,-1,-1,-1,-1,-1,-1,-1,-1,-1,-1,-1,-1,-1],"split_conditions":[1E0,1E0,1E0,1E0,8.089885E-3,1E0,1E0,1E0,1E0,1E0,7.5281197E-3,1E0,1E0,1E0,1E0,1E0,4.1406488E-4,1E0,1E0,1E0,1E0,1.1287238E-2,5.1306835E-3,1E0,-3.0738115E-3,-4.5766444E-3,5.6392746E-4,1E0,-1.307726E-3,1E0,1E0,5.12996E-3,1E0,1E0,-5.005531E-3,1E0,8.341485E-3,1E0,1E0,-6.6115367E-3,-3.6578032E-3,1E0,-9.99374E-3,1E0,6.265523E-3,-1.651213E-4,1.2869484E-3,1E0,-4.170467E-3,1E0,8.138665E-3,1E0,-1.201689E-3,-8.426913E-3,-1.2266089E-2,1E0,1E0,-1.3271796E-3,1.0702016E-3,1E0,1E0,1E0,1E0,-8.1877895E-3,-4.0345956E-3,-4.9501522E-3,-1.061452E-4,-4.3689986E-4,-4.207653E-3,-1.4366839E-3,6.42692E-3,1.7644401E-3,5.19502E-3,3.0462996E-3,9.748618E-3,6.9161213E-4,3.1440817E-3],"split_indices":[822,265,397,840,0,914,381,498,837,366,0,459,374,1148,390,274,0,623,106,376,273,0,0,67,0,0,0,279,0,0,764,0,625,882,0,507,0,369,1048,0,0,524,0,212,0,0,0,190,0,365,0,622,0,0,0,962,698,0,0,783,668,601,374,0,0,0,0,0,0,0,0,0,0,0,0,0,0],"split_type":[0,0,0,0,0,0,0,0,0,0,0,0,0,0,0,0,0,0,0,0,0,0,0,0,0,0,0,0,0,0,0,0,0,0,0,0,0,0,0,0,0,0,0,0,0,0,0,0,0,0,0,0,0,0,0,0,0,0,0,0,0,0,0,0,0,0,0,0,0,0,0,0,0,0,0,0,0],"sum_hessian":[4.2E2,9.9E1,3.21E2,9.3E1,6E0,1.35E2,1.86E2,7.6E1,1.7E1,1.29E2,6E0,1.76E2,1E1,6.8E1,8E0,1.2E1,5E0,1.12E2,1.7E1,7.9E1,9.7E1,4E0,6E0,6.3E1,5E0,4E0,4E0,8E0,4E0,9.5E1,1.7E1,7E0,1E1,7.5E1,4E0,9.1E1,6E0,5.3E1,1E1,4E0,4E0,8.8E1,7E0,1.2E1,5E0,5E0,5E0,7.1E1,4E0,8.5E1,6E0,4.9E1,4E0,4E0,6E0,3.3E1,5.5E1,6E0,6E0,2.5E1,4.6E1,1.3E1,7.2E1,4.5E1,4E0,2.9E1,4E0,4.3E1,1.2E1,2.1E1,4E0,3.9E1,7E0,8E0,5E0,3.5E1,3.7E1],"tree_param":{"num_deleted":"0","num_feature":"1163","num_nodes":"77","size_leaf_vector":"1"}},{"base_weights":[-1.6534986E-2,-4.4681147E-1,6.6745013E-1,-7.062809E-1,5.302492E-1,5.7458115E-1,1.4304521E0,-8.394738E-1,4.6016086E-2,3.4467432E-1,9.704484E-3,5.288105E-1,7.864157E-3,1.7466538E0,4.09039E-3,-9.519522E-1,1.67649E-1,5.2166164E-1,-2.2632259E-1,-4.1149566E-1,5.265451E-1,4.8626897E-1,7.979071E-3,7.2454796E-3,1.02605615E-2,-1.1396682E0,-4.52355E-1,8.301673E-1,-3.8276713E-3,9.4513816E-4,4.4654678E-3,7.030478E-3,-4.4161663E-3,-4.697048E-3,1.175342E-3,4.004277E-1,6.592758E-3,3.3426812E-1,8.1629455E-1,-1.2126814E0,-1.8606128E-1,-6.284849E-1,2.9193133E-3,5.89205E-3,2.247255E-3,1.8118159E-3,-1.252276E-3,6.8128926E-1,-2.7263952E-2,2.7470887E-1,6.526701E-3,9.3258625E-1,-3.3391756E-5,-1.298747E0,-6.05172E-1,-3.376068E-3,1.4374157E-3,-8.5758156E-1,-2.2062318E-2,9.8572856E-1,-1.086264E-3,-4.3155834E-1,4.2529562E-3,3.636718E-2,5.0496674E-1,1.0690607E0,1.1516697E-3,-6.771798E-3,-1.6455842E-3,2.707732E-4,-8.283337E-3,-6.03807E-3,-2.1788925E-3,-1.3295929E-3,1.6057015E-3,5.9224996E-3,2.0170165E-3,-5.150964E-3,1.517322E-3,-1.8659603E-3,2.062176E-3,1.2756832E-3,5.055671E-3,5.948608E-3,2.1903107E-3],"categories":[],"categories_nodes":[],"categories_segments":[],"categories_sizes":[],"default_left":[0,0,0,0,0,0,0,0,0,0,0,0,0,0,0,0,0,0,0,0,0,0,0,0,0,0,0,0,0,0,0,0,0,0,0,0,0,0,0,0,0,0,0,0,0,0,0,0,0,0,0,0,0,0,0,0,0,0,0,0,0,0,0,0,0,0,0,0,0,0,0,0,0,0,0,0,0,0,0,0,0,0,0,0,0],"id":5,"left_children":[1,3,5,7,9,11,13,15,17,19,-1,21,-1,23,-1,25,27,29,31,33,35,37,-1,-1,-1,39,41,43,-1,-1,-1,45,-1,-1,-1,47,-1,49,51,53,55,57,-1,-1,-1,-1,-1,59,61,63,-1,65,-1,67,69,-1,-1,71,73,75,-1,77,-1,79,81,83,-1,-1,-1,-1,-1,-1,-1,-1,-1,-1,-1,-1,-1,-1,-1,-1,-1,-1,-1],"loss_changes":[1.2129373E2,6.4217224E1,1.1025894E1,2.0119545E1,1.3644872E1,6.2358627E0,2.9564018E0,1.934961E1,3.9352553E0,6.5086093E0,0E0,5.9282722E0,0E0,4.2233276E-1,0E0,1.4175049E1,1.0640984E1,1.265151E0,3.000874E0,3.186366E0,3.6108656E0,6.4542027E0,0E0,0E0,0E0,7.597336E0,7.7240076E0,1.1516523E0,0E0,0E0,0E0,1.3083714E0,0E0,0E0,0E0,4.0319214E0,0E0,5.0446863E0,4.0105743E0,5.154785E0,1.9276838E0,4.9407997E0,0E0,0E0,0E0,0E0,0E0,5.5832767E0,4.651443E0,4.6237426E0,0E0,3.3278503E0,0E0,4.6748962E0,9.223291E0,0E0,0E0,3.6651611E0,8.492688E-1,1.5688772E0,0E0,4.0953803E0,0E0,6.502965E0,5.3198576E0,2.1051521E0,0E0,0E0,0E0,0E0,0E0,0E0,0E0,0E0,0E0,0E0,0E0,0E0,0E0,0E0,0E0,0E0,0E0,0E0,0E0],"parents":[2147483647,0,0,1,1,2,2,3,3,4,4,5,5,6,6,7,7,8,8,9,9,11,11,13,13,15,15,16,16,17,17,18,18,19,19,20,20,21,21,25,25,26,26,27,27,31,31,35,35,37,37,38,38,39,39,40,40,41,41,47,47,48,48,49,49,51,51,53,53,54,54,57,57,58,58,59,59,61,61,63,63,64,64,65,65],"right_children":[2,4,6,8,10,12,14,16,18,20,-1,22,-1,24,-1,26,28,30,32,34,36,38,-1,-1,-1,40,42,44,-1,-1,-1,46,-1,-1,-1,48,-1,50,52,54,56,58,-1,-1,-1,-1,-1,60,62,64,-1,66,-1,68,70,-1,-1,72,74,76,-1,78,-1,80,82,84,-1,-1,-1,-1,-1,-1,-1,-1,-1,-1,-1,-1,-1,-1,-1,-1,-1,-1,-1],"split_conditions":[1E0,1E0,1E0,1E0,1E0,1E0,1E0,1E0,1E0,1E0,9.704484E-3,1E0,7.864157E-3,1E0,4.09039E-3,1E0,1E0,1E0,1E0,1E0,1E0,1E0,7.979071E-3,7.2454796E-3,1.02605615E-2,1E0,1E0,1E0,-3.8276713E-3,9.4513816E-4,4.4654678E-3,1E0,-4.4161663E-3,-4.697048E-3,1.175342E-3,1E0,6.592758E-3,1E0,1E0,1E0,1E0,1E0,2.9193133E-3,5.89205E-3,2.247255E-3,1.8118159E-3,-1.252276E-3,1E0,1E0,1E0,6.526701E-3,1E0,-3.3391756E-5,1E0,1E0,-3.376068E-3,1.4374157E-3,1E0,1E0,1E0,-1.086264E-3,1E0,4.2529562E-3,1E0,1E0,1E0,1.1516697E-3,-6.771798E-3,-1.6455842E-3,2.707732E-4,-8.283337E-3,-6.03807E-3,-2.1788925E-3,-1.3295929E-3,1.6057015E-3,5.9224996E-3,2.0170165E-3,-5.150964E-3,1.517322E-3,-1.8659603E-3,2.062176E-3,1.2756832E-3,5.055671E-3,5.948608E-3,2.1903107E-3],"split_indices":[769,768,295,255,596,381,369,603,391,1048,0,458,0,273,0,622,179,625,855,1125,222,396,0,0,0,1148,763,1078,0,0,0,2,0,0,0,1055,0,377,48,369,142,184,0,0,0,0,0,406,882,887,0,840,0,546,619,0,0,842,531,184,0,274,0,691,294,248,0,0,0,0,0,0,0,0,0,0,0,0,0,0,0,0,0,0,0],"split_type":[0,0,0,0,0,0,0,0,0,0,0,0,0,0,0,0,0,0,0,0,0,0,0,0,0,0,0,0,0,0,0,0,0,0,0,0,0,0,0,0,0,0,0,0,0,0,0,0,0,0,0,0,0,0,0,0,0,0,0,0,0,0,0,0,0,0,0,0,0,0,0,0,0,0,0,0,0,0,0,0,0,0,0,0,0],"sum_hessian":[4.12E2,2.53E2,1.59E2,2E2,5.3E1,1.42E2,1.7E1,1.7E2,3E1,4.7E1,6E0,1.36E2,6E0,1.1E1,6E0,1.53E2,1.7E1,1.1E1,1.9E1,9E0,3.8E1,1.31E2,5E0,6E0,5E0,1.11E2,4.2E1,1E1,7E0,6E0,5E0,1.4E1,5E0,5E0,4E0,3.3E1,5E0,9E1,4.1E1,1.03E2,8E0,3.6E1,6E0,5E0,5E0,6E0,8E0,2E1,1.3E1,8.5E1,5E0,3.6E1,5E0,9E1,1.3E1,4E0,4E0,2.6E1,1E1,1.5E1,5E0,9E0,4E0,4.2E1,4.3E1,3E1,6E0,8.5E1,5E0,8E0,5E0,1.4E1,1.2E1,6E0,4E0,1.1E1,4E0,5E0,4E0,2E1,2.2E1,2.9E1,1.4E1,2.5E1,5E0],"tree_param":{"num_deleted":"0","num_feature":"1163","num_nodes":"85","size_leaf_vector":"1"}},{"base_weights":[5.332432E-3,-3.266815E-1,4.07096E-1,-5.6409323E-1,7.150333E-1,4.6417227E-1,-8.896642E-3,-1.2276696E0,-3.7879893E-1,5.8492535E-1,9.9085E-3,5.109692E-1,-4.9413694E-3,-1.3686285E0,-6.717771E-4,-6.653834E-1,-1.2870006E-1,3.4873357E-1,1.1412964E0,4.5928043E-1,8.282523E-3,-1.568064E0,-2.3206754E-3,-8.061843E-1,1.9874276E-1,-4.9339604E-2,-5.5805678E-3,1.140222E-1,8.5425293E-1,9.952749E-3,3.435699E-3,5.870762E-1,-2.3100197E-2,-1.435789E0,-1.1919888E-2,-9.2010105E-1,2.3442446E-3,3.7388348E-3,-7.9995417E-4,3.8899668E-2,-4.6574287E-3,-1.1997025E-1,5.251178E-3,6.596701E-3,1.1737418E-3,7.833107E-1,2.6718867E-1,-5.528918E-1,3.197381E-1,-1.3024596E0,-9.299496E-3,-1.0237883E0,7.049033E-4,-1.4966166E-1,4.8141485E-1,-4.242246E-1,1.3002282E-3,8.746578E-1,-5.5582887E-3,-5.8193517E-1,4.1440272E-1,-9.2698574E-1,2.2661914E-3,7.5918776E-1,-7.920955E-2,-5.5689006E-3,-8.6731315E-3,-3.857165E-3,-7.4450015E-3,-1.8469245E-3,1.9625616E-3,4.1803913E-3,1.0193974E-3,-6.904824E-4,-3.148676E-3,5.707679E-3,2.6203385E-3,-5.643953E-3,-3.7013847E-6,1.5789779E-3,6.020368E-3,-5.356202E-3,-3.1721168E-3,5.239576E-3,2.4590313E-3,-1.6766101E-3,2.0427734E-3],"categories":[],"categories_nodes":[],"categories_segments":[],"categories_sizes":[],"default_left":[0,0,0,0,0,0,0,0,0,0,0,0,0,0,0,0,0,0,0,0,0,0,0,0,0,0,0,0,0,0,0,0,0,0,0,0,0,0,0,0,0,0,0,0,0,0,0,0,0,0,0,0,0,0,0,0,0,0,0,0,0,0,0,0,0,0,0,0,0,0,0,0,0,0,0,0,0,0,0,0,0,0,0,0,0,0,0],"id":6,"left_children":[1,3,5,7,9,11,-1,13,15,17,-1,19,-1,21,-1,23,25,27,29,31,-1,33,-1,35,37,39,-1,41,43,-1,-1,45,47,49,-1,51,-1,-1,-1,53,-1,55,-1,-1,-1,57,59,61,63,65,-1,67,-1,69,71,73,-1,75,-1,77,79,81,-1,83,85,-1,-1,-1,-1,-1,-1,-1,-1,-1,-1,-1,-1,-1,-1,-1,-1,-1,-1,-1,-1,-1,-1],"loss_changes":[5.925893E1,6.015022E1,2.5069824E1,2.4178574E1,7.104719E0,1.3340008E1,0E0,6.4997177E0,1.1042555E1,5.2380867E0,0E0,1.1005238E1,0E0,6.6321487E0,0E0,8.838583E0,6.4100766E0,3.3630297E0,4.3089447E0,1.1273716E1,0E0,2.6986694E0,0E0,9.1003E0,2.0497427E0,6.078809E0,0E0,4.492683E0,2.4625888E0,0E0,0E0,8.937893E0,6.957148E0,1.0289574E0,0E0,6.369526E0,0E0,0E0,0E0,5.883839E0,0E0,1.8860985E0,0E0,0E0,0E0,1.5500851E1,6.8979425E0,5.7645917E0,4.112011E0,1.2920418E0,0E0,5.8148994E0,0E0,5.8617845E0,1.9739623E0,4.6298337E-1,0E0,7.764969E0,0E0,2.4810388E0,3.5039816E0,2.5961208E-1,0E0,6.7820835E-1,1.5192131E0,0E0,0E0,0E0,0E0,0E0,0E0,0E0,0E0,0E0,0E0,0E0,0E0,0E0,0E0,0E0,0E0,0E0,0E0,0E0,0E0,0E0,0E0],"parents":[2147483647,0,0,1,1,2,2,3,3,4,4,5,5,7,7,8,8,9,9,11,11,13,13,15,15,16,16,17,17,18,18,19,19,21,21,23,23,24,24,25,25,27,27,28,28,31,31,32,32,33,33,35,35,39,39,41,41,45,45,46,46,47,47,48,48,49,49,51,51,53,53,54,54,55,55,57,57,59,59,60,60,61,61,63,63,64,64],"right_children":[2,4,6,8,10,12,-1,14,16,18,-1,20,-1,22,-1,24,26,28,30,32,-1,34,-1,36,38,40,-1,42,44,-1,-1,46,48,50,-1,52,-1,-1,-1,54,-1,56,-1,-1,-1,58,60,62,64,66,-1,68,-1,70,72,74,-1,76,-1,78,80,82,-1,84,86,-1,-1,-1,-1,-1,-1,-1,-1,-1,-1,-1,-1,-1,-1,-1,-1,-1,-1,-1,-1,-1,-1],"split_conditions":[1E0,1E0,1E0,1E0,1E0,1E0,-8.896642E-3,1E0,1E0,1E0,9.9085E-3,1E0,-4.9413694E-3,1E0,-6.717771E-4,1E0,1E0,1E0,1E0,1E0,8.282523E-3,1E0,-2.3206754E-3,1E0,1E0,1E0,-5.5805678E-3,1E0,1E0,9.952749E-3,3.435699E-3,1E0,1E0,1E0,-1.1919888E-2,1E0,2.3442446E-3,3.7388348E-3,-7.9995417E-4,1E0,-4.6574287E-3,1E0,5.251178E-3,6.596701E-3,1.1737418E-3,1E0,1E0,1E0,1E0,1E0,-9.299496E-3,1E0,7.049033E-4,1E0,1E0,1E0,1.3002282E-3,1E0,-5.5582887E-3,1E0,1E0,1E0,2.2661914E-3,1E0,1E0,-5.5689006E-3,-8.6731315E-3,-3.857165E-3,-7.4450015E-3,-1.8469245E-3,1.9625616E-3,4.1803913E-3,1.0193974E-3,-6.904824E-4,-3.148676E-3,5.707679E-3,2.6203385E-3,-5.643953E-3,-3.7013847E-6,1.5789779E-3,6.020368E-3,-5.356202E-3,-3.1721168E-3,5.239576E-3,2.4590313E-3,-1.6766101E-3,2.0427734E-3],"split_indices":[397,768,151,601,280,488,0,1012,43,184,0,929,0,203,0,458,513,306,1114,682,0,375,0,603,591,1060,0,703,37,0,0,369,219,207,0,203,0,0,0,498,0,682,0,0,0,837,524,51,1078,420,0,1078,0,888,682,1030,0,955,0,357,603,882,0,391,390,0,0,0,0,0,0,0,0,0,0,0,0,0,0,0,0,0,0,0,0,0,0],"split_type":[0,0,0,0,0,0,0,0,0,0,0,0,0,0,0,0,0,0,0,0,0,0,0,0,0,0,0,0,0,0,0,0,0,0,0,0,0,0,0,0,0,0,0,0,0,0,0,0,0,0,0,0,0,0,0,0,0,0,0,0,0,0,0,0,0,0,0,0,0,0,0,0,0,0,0,0,0,0,0,0,0,0,0,0,0,0,0],"sum_hessian":[4.44E2,2.43E2,2.01E2,1.98E2,4.5E1,1.96E2,5E0,4.3E1,1.55E2,4.1E1,4E0,1.9E2,6E0,3.8E1,5E0,7.2E1,8.3E1,2.9E1,1.2E1,1.82E2,8E0,3.1E1,7E0,6.2E1,1E1,7.7E1,6E0,2E1,9E0,4E0,8E0,1.44E2,3.8E1,2.7E1,4E0,5.7E1,5E0,4E0,6E0,7E1,7E0,1.6E1,4E0,5E0,4E0,8.9E1,5.5E1,1.5E1,2.3E1,2.1E1,6E0,5.2E1,5E0,4.9E1,2.1E1,9E0,7E0,8.5E1,4E0,8E0,4.7E1,1.1E1,4E0,1.1E1,1.2E1,1.5E1,6E0,3.4E1,1.8E1,3.5E1,1.4E1,9E0,1.2E1,4E0,5E0,4.8E1,3.7E1,4E0,4E0,4.2E1,5E0,7E0,4E0,5E0,6E0,8E0,4E0],"tree_param":{"num_deleted":"0","num_feature":"1163","num_nodes":"87","size_leaf_vector":"1"}},{"base_weights":[-3.0745236E-2,-7.132627E-1,2.9834175E-1,-8.9610744E-1,7.644906E-1,-0E0,5.5777216E-1,-1.0611287E0,7.56224E-1,-1.7822285E-3,1.3311168E0,-3.6862105E-1,6.867684E-1,7.422935E-2,7.6656526E-1,-1.2341207E0,-4.6019974E-1,2.6064285E-3,5.6223893E-3,3.6873382E-3,9.412348E-3,-1.2143582E0,-1.2610182E-1,1.1589186E-2,9.494141E-1,-1.0051682E-1,7.486091E-3,6.238713E-1,1.5007626E0,-1.3591391E0,-1.5226014E-1,-2.424297E-1,-5.6049237E-3,-1.4268713E0,-3.622646E-3,2.7886736E-1,-4.565482E-1,-2.4447807E-3,3.0377095E-3,1.2071972E0,3.4225258E-1,-6.5522546E-1,1.8541841E-1,5.6224054E-1,7.1984795E-3,1.0714056E0,1.0393834E-2,-1.4530137E0,-1.1456994E-3,-1.8489739E-3,4.7051737E-5,-0E0,-5.5766394E-3,-1.6774659E0,-4.0786285E-3,4.3702748E-1,-3.5730624E-3,-8.1747925E-1,6.925526E-2,1.4094884E0,2.2469768E-3,-1.090826E-3,5.939216E-3,-5.988483E-3,-3.3492613E-1,5.575013E-2,3.0868137E-3,6.2885123E-1,6.6392735E-2,4.170201E-3,6.357837E-3,-1.509003E0,-2.4055724E-3,-2.2553605E-1,2.176815E-3,-1.107944E-2,-4.7333073E-3,2.8564095E-1,5.1929355E-3,-5.9129566E-1,-6.376851E-3,2.8452906E-3,-1.7562805E-1,1.2085757E0,1.0229543E-2,-2.500866E-3,-5.052997E-4,-2.3510226E-3,2.733228E-1,5.552709E-1,1.202258E0,1.2333773E-3,-9.1653055E-4,-7.126156E-3,-1.0926136E-2,4.1720177E-5,-2.9407456E-3,-6.724155E-4,2.294692E-3,-1.4541107E-3,-5.0815437E-3,-3.8874515E-3,1.0912035E-3,4.949267E-3,8.48878E-3,2.4185926E-3,-6.625339E-4,3.1321931E-3,5.067742E-4,7.009643E-3,4.7655893E-3],"categories":[],"categories_nodes":[],"categories_segments":[],"categories_sizes":[],"default_left":[0,0,0,0,0,0,0,0,0,0,0,0,0,0,0,0,0,0,0,0,0,0,0,0,0,0,0,0,0,0,0,0,0,0,0,0,0,0,0,0,0,0,0,0,0,0,0,0,0,0,0,0,0,0,0,0,0,0,0,0,0,0,0,0,0,0,0,0,0,0,0,0,0,0,0,0,0,0,0,0,0,0,0,0,0,0,0,0,0,0,0,0,0,0,0,0,0,0,0,0,0,0,0,0,0,0,0,0,0,0,0],"id":7,"left_children":[1,3,5,7,9,11,13,15,17,-1,19,21,23,25,27,29,31,-1,-1,-1,-1,33,35,37,39,41,-1,43,45,47,49,51,-1,53,-1,55,57,-1,-1,59,61,63,65,67,-1,69,-1,71,-1,-1,-1,73,-1,75,-1,77,-1,79,81,83,-1,-1,-1,-1,85,87,-1,89,91,-1,-1,93,-1,95,-1,-1,-1,97,-1,99,-1,-1,101,103,-1,-1,-1,-1,105,107,109,-1,-1,-1,-1,-1,-1,-1,-1,-1,-1,-1,-1,-1,-1,-1,-1,-1,-1,-1,-1],"loss_changes":[9.463781E1,3.7123734E1,2.2032677E1,3.3398422E1,9.718748E0,3.3442497E1,1.5280941E1,1.1352776E1,7.657833E-1,0E0,2.9506054E0,1.7533722E1,8.09457E0,1.1593728E1,1.0846497E1,1.1499695E1,3.4720778E0,0E0,0E0,0E0,0E0,1.7071304E0,9.00677E0,3.947249E0,5.0113792E0,6.5698557E0,0E0,4.233635E0,3.760788E0,8.006393E0,3.5015255E-1,3.9776735E0,0E0,1.6634941E0,0E0,4.7378817E0,7.108257E0,0E0,0E0,3.3242683E0,4.8922377E0,2.2832127E0,1.4588168E0,2.6830902E0,0E0,1.9989204E-1,0E0,3.6320038E0,0E0,0E0,0E0,1.4804106E0,0E0,3.1096878E0,0E0,2.2378306E0,0E0,2.0592432E0,1.8906312E0,1.798275E0,0E0,0E0,0E0,0E0,2.9696012E-1,2.4111333E0,0E0,2.8722668E0,4.6442145E-1,0E0,0E0,3.1914673E0,0E0,9.049425E-1,0E0,0E0,0E0,1.5691868E0,0E0,1.7908244E0,0E0,0E0,2.4574144E0,1.1185799E0,0E0,0E0,0E0,0E0,1.3247298E0,2.036539E0,7.479954E-2,0E0,0E0,0E0,0E0,0E0,0E0,0E0,0E0,0E0,0E0,0E0,0E0,0E0,0E0,0E0,0E0,0E0,0E0,0E0,0E0],"parents":[2147483647,0,0,1,1,2,2,3,3,4,4,5,5,6,6,7,7,8,8,10,10,11,11,12,12,13,13,14,14,15,15,16,16,21,21,22,22,23,23,24,24,25,25,27,27,28,28,29,29,30,30,31,31,33,33,35,35,36,36,39,39,40,40,41,41,42,42,43,43,45,45,47,47,51,51,53,53,55,55,57,57,58,58,59,59,64,64,65,65,67,67,68,68,71,71,73,73,77,77,79,79,82,82,83,83,88,88,89,89,90,90],"right_children":[2,4,6,8,10,12,14,16,18,-1,20,22,24,26,28,30,32,-1,-1,-1,-1,34,36,38,40,42,-1,44,46,48,50,52,-1,54,-1,56,58,-1,-1,60,62,64,66,68,-1,70,-1,72,-1,-1,-1,74,-1,76,-1,78,-1,80,82,84,-1,-1,-1,-1,86,88,-1,90,92,-1,-1,94,-1,96,-1,-1,-1,98,-1,100,-1,-1,102,104,-1,-1,-1,-1,106,108,110,-1,-1,-1,-1,-1,-1,-1,-1,-1,-1,-1,-1,-1,-1,-1,-1,-1,-1,-1,-1],"split_conditions":[1E0,1E0,1E0,1E0,1E0,1E0,1E0,1E0,1E0,-1.7822285E-3,1E0,1E0,1E0,1E0,1E0,1E0,1E0,2.6064285E-3,5.6223893E-3,3.6873382E-3,9.412348E-3,1E0,1E0,1E0,1E0,1E0,7.486091E-3,1E0,1E0,1E0,1E0,1E0,-5.6049237E-3,1E0,-3.622646E-3,1E0,1E0,-2.4447807E-3,3.0377095E-3,1E0,1E0,1E0,1E0,1E0,7.1984795E-3,1E0,1.0393834E-2,1E0,-1.1456994E-3,-1.8489739E-3,4.7051737E-5,1E0,-5.5766394E-3,1E0,-4.0786285E-3,1E0,-3.5730624E-3,1E0,1E0,1E0,2.2469768E-3,-1.090826E-3,5.939216E-3,-5.988483E-3,1E0,1E0,3.0868137E-3,1E0,1E0,4.170201E-3,6.357837E-3,1E0,-2.4055724E-3,1E0,2.176815E-3,-1.107944E-2,-4.7333073E-3,1E0,5.1929355E-3,1E0,-6.376851E-3,2.8452906E-3,1E0,1E0,1.0229543E-2,-2.500866E-3,-5.052997E-4,-2.3510226E-3,1E0,1E0,1E0,1.2333773E-3,-9.1653055E-4,-7.126156E-3,-1.0926136E-2,4.1720177E-5,-2.9407456E-3,-6.724155E-4,2.294692E-3,-1.4541107E-3,-5.0815437E-3,-3.8874515E-3,1.0912035E-3,4.949267E-3,8.48878E-3,2.4185926E-3,-6.625339E-4,3.1321931E-3,5.067742E-4,7.009643E-3,4.7655893E-3],"split_indices":[279,544,693,769,682,768,190,840,164,0,403,531,391,542,373,375,1114,0,0,0,0,974,391,417,446,1070,0,507,1074,127,142,1143,0,374,0,118,1073,0,0,207,274,403,498,779,0,649,0,485,0,0,0,106,0,682,0,376,0,227,448,274,0,0,0,0,619,524,0,498,531,0,0,369,0,881,0,0,0,601,0,106,0,0,415,118,0,0,0,0,761,17,607,0,0,0,0,0,0,0,0,0,0,0,0,0,0,0,0,0,0,0,0],"split_type":[0,0,0,0,0,0,0,0,0,0,0,0,0,0,0,0,0,0,0,0,0,0,0,0,0,0,0,0,0,0,0,0,0,0,0,0,0,0,0,0,0,0,0,0,0,0,0,0,0,0,0,0,0,0,0,0,0,0,0,0,0,0,0,0,0,0,0,0,0,0,0,0,0,0,0,0,0,0,0,0,0,0,0,0,0,0,0,0,0,0,0,0,0,0,0,0,0,0,0,0,0,0,0,0,0,0,0,0,0,0,0],"sum_hessian":[4.21E2,1.37E2,2.84E2,1.22E2,1.5E1,1.32E2,1.52E2,1.11E2,1.1E1,5E0,1E1,8.6E1,4.6E1,4.6E1,1.06E2,8.6E1,2.5E1,7E0,4E0,5E0,5E0,1.9E1,6.7E1,1.3E1,3.3E1,4.1E1,5E0,8.9E1,1.7E1,7.7E1,9E0,1.9E1,6E0,1.3E1,6E0,3E1,3.7E1,7E0,6E0,2.3E1,1E1,1.4E1,2.7E1,8.3E1,6E0,1E1,7E0,7.1E1,6E0,4E0,5E0,1.5E1,4E0,9E0,4E0,2.6E1,4E0,2.2E1,1.5E1,1.8E1,5E0,6E0,4E0,5E0,9E0,2.1E1,6E0,7.3E1,1E1,5E0,5E0,6.7E1,4E0,1E1,5E0,5E0,4E0,2.1E1,5E0,1.5E1,7E0,5E0,1E1,1.4E1,4E0,5E0,4E0,6E0,1.5E1,6.5E1,8E0,6E0,4E0,6E1,7E0,6E0,4E0,6E0,1.5E1,9E0,6E0,4E0,6E0,1E1,4E0,1E1,5E0,5.6E1,9E0,4E0,4E0],"tree_param":{"num_deleted":"0","num_feature":"1163","num_nodes":"111","size_leaf_vector":"1"}},{"base_weights":[1.1286837E-2,-9.4919026E-1,2.2426698E-1,-1.1618404E0,9.189269E-1,-9.5805325E-2,5.32366E-1,-1.4169501E0,-8.784576E-1,2.4899058E-3,6.486569E-3,-5.633065E-1,2.7087483E-1,6.335578E-1,-1.993738E-1,-1.514347E0,-2.8797179E-3,-1.2432951E0,-4.056868E-1,-3.8946813E-1,-1.58599E0,3.8523555E-1,-8.427548E-1,1.4250575E-1,7.6029164E-1,-4.9284452E-1,3.861649E-3,-1.4025953E0,-1.0420937E-2,-5.17052E-3,-1.4112862E0,-1.8640317E-1,-4.8465817E-3,-5.4408944E-1,4.6504712E-1,-5.6828414E-3,-9.610976E-3,2.911638E-1,8.234573E-3,-8.832712E-3,1.5337793E-3,-1.460069E-1,6.0636047E-3,8.086329E-1,-1.9788335E-3,-6.264225E-3,-2.4491434E-1,-1.5170755E0,-3.3765957E-3,-8.092763E-3,-5.2417335E-3,-0E0,-2.6146716E-3,-8.142482E-1,-8.818527E-2,3.143805E-3,1.380094E-3,2.238377E-1,7.814085E-3,1.1170407E-1,-7.758584E-3,7.0895463E-1,1.3381286E0,1.2139438E-3,-3.3605548E-3,-1.4017849E0,-1.0125667E-2,-1.027605E0,-3.9337486E-1,8.65035E-1,-6.832131E-1,3.2114604E-1,-5.191403E-1,3.1177706E-1,-3.770617E-3,6.6304696E-1,8.905694E-3,1.0592642E0,1.1561913E-2,-6.2765256E-3,-8.958988E-3,-6.0017183E-3,-1.8910357E-3,-2.0489903E-4,-5.299147E-3,-4.4127507E-4,9.086862E-3,-4.7726408E-3,-2.2108038E-4,3.8689335E-3,8.084644E-4,-4.8087537E-3,1.19699E-4,2.7099943E-3,-1.3474727E-3,3.0727556E-3,8.7579815E-3,7.1574803E-3,2.7662452E-5],"categories":[],"categories_nodes":[],"categories_segments":[],"categories_sizes":[],"default_left":[0,0,0,0,0,0,0,0,0,0,0,0,0,0,0,0,0,0,0,0,0,0,0,0,0,0,0,0,0,0,0,0,0,0,0,0,0,0,0,0,0,0,0,0,0,0,0,0,0,0,0,0,0,0,0,0,0,0,0,0,0,0,0,0,0,0,0,0,0,0,0,0,0,0,0,0,0,0,0,0,0,0,0,0,0,0,0,0,0,0,0,0,0,0,0,0,0,0,0],"id":8,"left_children":[1,3,5,7,9,11,13,15,17,-1,-1,19,21,23,25,27,-1,29,31,33,35,37,39,41,43,45,-1,47,-1,-1,49,51,-1,53,55,-1,-1,57,-1,-1,-1,59,-1,61,-1,-1,63,65,-1,-1,-1,-1,-1,67,69,-1,-1,71,-1,73,-1,75,77,-1,-1,79,-1,81,83,85,87,89,91,93,-1,95,-1,97,-1,-1,-1,-1,-1,-1,-1,-1,-1,-1,-1,-1,-1,-1,-1,-1,-1,-1,-1,-1,-1],"loss_changes":[8.9171135E1,3.1549744E1,3.5256203E1,4.8260117E0,1.0772781E0,3.0055653E1,1.353228E1,2.7790298E0,5.695076E0,0E0,0E0,1.3482021E1,1.2488249E1,9.87809E0,6.31716E0,1.5274963E0,0E0,3.2328796E-1,1.7527518E0,8.765378E0,1.206068E0,1.0367098E1,9.838089E0,1.0326124E1,7.1691284E0,3.0677066E0,0E0,2.0560303E0,0E0,0E0,3.6981392E-1,7.3550504E-1,0E0,6.827921E0,2.204721E-1,0E0,0E0,6.932086E0,0E0,0E0,0E0,9.591442E0,0E0,6.180382E0,0E0,0E0,2.7811007E0,8.447037E-1,0E0,0E0,0E0,0E0,0E0,2.994051E0,1.2011845E1,0E0,0E0,5.719087E0,0E0,3.8153288E0,0E0,4.7547493E0,4.6657486E0,0E0,0E0,6.7167664E-1,0E0,2.4154854E0,2.746481E0,7.5124793E0,2.1844258E0,4.9696846E0,2.2671583E0,2.4592824E0,0E0,4.928417E0,0E0,5.8032227E0,0E0,0E0,0E0,0E0,0E0,0E0,0E0,0E0,0E0,0E0,0E0,0E0,0E0,0E0,0E0,0E0,0E0,0E0,0E0,0E0,0E0],"parents":[2147483647,0,0,1,1,2,2,3,3,4,4,5,5,6,6,7,7,8,8,11,11,12,12,13,13,14,14,15,15,17,17,18,18,19,19,20,20,21,21,22,22,23,23,24,24,25,25,27,27,30,30,31,31,33,33,34,34,37,37,41,41,43,43,46,46,47,47,53,53,54,54,57,57,59,59,61,61,62,62,65,65,67,67,68,68,69,69,70,70,71,71,72,72,73,73,75,75,77,77],"right_children":[2,4,6,8,10,12,14,16,18,-1,-1,20,22,24,26,28,-1,30,32,34,36,38,40,42,44,46,-1,48,-1,-1,50,52,-1,54,56,-1,-1,58,-1,-1,-1,60,-1,62,-1,-1,64,66,-1,-1,-1,-1,-1,68,70,-1,-1,72,-1,74,-1,76,78,-1,-1,80,-1,82,84,86,88,90,92,94,-1,96,-1,98,-1,-1,-1,-1,-1,-1,-1,-1,-1,-1,-1,-1,-1,-1,-1,-1,-1,-1,-1,-1,-1],"split_conditions":[1E0,1E0,1E0,1E0,1E0,1E0,1E0,1E0,1E0,2.4899058E-3,6.486569E-3,1E0,1E0,1E0,1E0,1E0,-2.8797179E-3,1E0,1E0,1E0,1E0,1E0,1E0,1E0,1E0,1E0,3.861649E-3,1E0,-1.0420937E-2,-5.17052E-3,1E0,1E0,-4.8465817E-3,1E0,1E0,-5.6828414E-3,-9.610976E-3,1E0,8.234573E-3,-8.832712E-3,1.5337793E-3,1E0,6.0636047E-3,1E0,-1.9788335E-3,-6.264225E-3,1E0,1E0,-3.3765957E-3,-8.092763E-3,-5.2417335E-3,-0E0,-2.6146716E-3,1E0,1E0,3.143805E-3,1.380094E-3,1E0,7.814085E-3,1E0,-7.758584E-3,1E0,1E0,1.2139438E-3,-3.3605548E-3,1E0,-1.0125667E-2,1E0,1E0,1E0,1E0,1E0,1E0,1E0,-3.770617E-3,1E0,8.905694E-3,1E0,1.1561913E-2,-6.2765256E-3,-8.958988E-3,-6.0017183E-3,-1.8910357E-3,-2.0489903E-4,-5.299147E-3,-4.4127507E-4,9.086862E-3,-4.7726408E-3,-2.2108038E-4,3.8689335E-3,8.084644E-4,-4.8087537E-3,1.19699E-4,2.7099943E-3,-1.3474727E-3,3.0727556E-3,8.7579815E-3,7.1574803E-3,2.7662452E-5],"split_indices":[822,930,769,531,92,1048,184,920,43,0,0,164,503,43,51,166,0,774,672,817,622,596,230,295,138,503,0,1048,0,0,287,662,0,524,58,0,0,397,0,0,0,706,0,373,0,0,531,591,0,0,0,0,0,1025,43,0,0,826,0,682,0,473,142,0,0,633,0,95,120,531,682,255,649,392,0,441,0,1028,0,0,0,0,0,0,0,0,0,0,0,0,0,0,0,0,0,0,0,0,0],"split_type":[0,0,0,0,0,0,0,0,0,0,0,0,0,0,0,0,0,0,0,0,0,0,0,0,0,0,0,0,0,0,0,0,0,0,0,0,0,0,0,0,0,0,0,0,0,0,0,0,0,0,0,0,0,0,0,0,0,0,0,0,0,0,0,0,0,0,0,0,0,0,0,0,0,0,0,0,0,0,0,0,0,0,0,0,0,0,0,0,0,0,0,0,0,0,0,0,0,0,0],"sum_hessian":[4.36E2,7.9E1,3.57E2,7.1E1,8E0,1.75E2,1.82E2,3.7E1,3.4E1,4E0,4E0,7.7E1,9.8E1,1.6E2,2.2E1,3.3E1,4E0,1.9E1,1.5E1,6.6E1,1.1E1,8.9E1,9E0,3.3E1,1.27E2,1.7E1,5E0,2.8E1,5E0,9E0,1E1,1.1E1,4E0,5.6E1,1E1,5E0,6E0,8.3E1,6E0,5E0,4E0,2.6E1,7E0,1.22E2,5E0,4E0,1.3E1,2.4E1,4E0,6E0,4E0,7E0,4E0,3.5E1,2.1E1,5E0,5E0,7.9E1,4E0,2.2E1,4E0,1.03E2,1.9E1,6E0,7E0,2E1,4E0,2.3E1,1.2E1,8E0,1.3E1,7E1,9E0,1.8E1,4E0,9.9E1,4E0,1.5E1,4E0,1.5E1,5E0,1.8E1,5E0,8E0,4E0,4E0,4E0,9E0,4E0,1.8E1,5.2E1,5E0,4E0,1.3E1,5E0,9.5E1,4E0,1.1E1,4E0],"tree_param":{"num_deleted":"0","num_feature":"1163","num_nodes":"99","size_leaf_vector":"1"}},{"base_weights":[-1.7681524E-2,-4.0850586E-1,5.7471293E-1,-6.0066426E-1,5.762847E-1,5.341527E-1,9.460494E-3,-1.1342531E0,-2.8470227E-1,1.5055755E-1,1.2841716E0,4.744229E-1,1.4615779E0,-1.2512953E0,5.404906E-4,-4.0541047E-1,9.787594E-1,-1.4748679E-1,7.2766338E-3,8.8499874E-1,8.830334E-3,3.8672036E-1,1.1109197E0,8.363602E-3,6.0279057E-3,-1.3228116E0,-0E0,-3.057202E-1,-9.280122E-3,7.672809E-3,6.7514646E-1,-6.796472E-1,2.1700251E-1,1.7992979E-3,7.4824463E-3,4.499637E-1,-4.2357975E-1,9.282976E-3,5.493284E-1,-1.3819492E0,-1.5128257E-3,-4.683515E-1,2.4506642E-1,1.6770194E-3,4.8913797E-3,-5.964805E-3,-2.2060778E-5,3.460449E-3,-1.6299228E-3,3.99599E-1,7.2683934E-3,-2.921531E-4,-4.6818657E-3,-1.3657206E-3,6.2075234E-3,-1.6578796E0,-1.212195E0,-5.663121E-1,5.443297E-1,-8.2964515E-3,6.7718136E-3,4.438908E-1,-3.1319235E-3,-9.045332E-3,-5.0666123E-3,-5.438695E-3,-1.0387934E-2,-3.3397805E-3,1.9271709E-3,5.2392314E-4,4.752262E-3,-1.3493145E-3,5.6323996E-3,2.040675E-3,7.0834863E-3],"categories":[],"categories_nodes":[],"categories_segments":[],"categories_sizes":[],"default_left":[0,0,0,0,0,0,0,0,0,0,0,0,0,0,0,0,0,0,0,0,0,0,0,0,0,0,0,0,0,0,0,0,0,0,0,0,0,0,0,0,0,0,0,0,0,0,0,0,0,0,0,0,0,0,0,0,0,0,0,0,0,0,0,0,0,0,0,0,0,0,0,0,0,0,0],"id":9,"left_children":[1,3,5,7,9,11,-1,13,15,17,19,21,23,25,-1,27,29,31,-1,33,-1,35,37,-1,-1,39,-1,41,-1,-1,43,45,47,-1,-1,49,51,-1,53,55,-1,57,59,-1,-1,-1,-1,-1,-1,61,-1,-1,-1,-1,-1,63,65,67,69,71,-1,73,-1,-1,-1,-1,-1,-1,-1,-1,-1,-1,-1,-1,-1],"loss_changes":[1.0143961E2,5.0013798E1,9.001301E0,3.7126595E1,1.285106E1,9.138023E0,0E0,1.2045906E1,2.120649E1,1.0668114E1,2.7217178E0,8.71468E0,1.065197E-1,6.825882E0,0E0,1.8144897E1,1.7557383E0,4.339628E0,0E0,2.7149863E0,0E0,7.200815E0,7.697695E0,0E0,0E0,4.108864E0,0E0,1.069832E1,0E0,0E0,6.928668E-1,3.0547004E0,3.4321592E0,0E0,0E0,6.3656216E0,1.8035448E0,0E0,6.433082E0,2.7049408E0,0E0,9.16922E0,7.7288837E0,0E0,0E0,0E0,0E0,0E0,0E0,5.6521683E0,0E0,0E0,0E0,0E0,0E0,2.0295181E0,4.0468636E0,8.184858E0,1.3488045E0,6.519354E0,0E0,3.934164E0,0E0,0E0,0E0,0E0,0E0,0E0,0E0,0E0,0E0,0E0,0E0,0E0,0E0],"parents":[2147483647,0,0,1,1,2,2,3,3,4,4,5,5,7,7,8,8,9,9,10,10,11,11,12,12,13,13,15,15,16,16,17,17,19,19,21,21,22,22,25,25,27,27,30,30,31,31,32,32,35,35,36,36,38,38,39,39,41,41,42,42,49,49,55,55,56,56,57,57,58,58,59,59,61,61],"right_children":[2,4,6,8,10,12,-1,14,16,18,20,22,24,26,-1,28,30,32,-1,34,-1,36,38,-1,-1,40,-1,42,-1,-1,44,46,48,-1,-1,50,52,-1,54,56,-1,58,60,-1,-1,-1,-1,-1,-1,62,-1,-1,-1,-1,-1,64,66,68,70,72,-1,74,-1,-1,-1,-1,-1,-1,-1,-1,-1,-1,-1,-1,-1],"split_conditions":[1E0,1E0,1E0,1E0,1E0,1E0,9.460494E-3,1E0,1E0,1E0,1E0,1E0,1E0,1E0,5.404906E-4,1E0,1E0,1E0,7.2766338E-3,1E0,8.830334E-3,1E0,1E0,8.363602E-3,6.0279057E-3,1E0,-0E0,1E0,-9.280122E-3,7.672809E-3,1E0,1E0,1E0,1.7992979E-3,7.4824463E-3,1E0,1E0,9.282976E-3,1E0,1E0,-1.5128257E-3,1E0,1E0,1.6770194E-3,4.8913797E-3,-5.964805E-3,-2.2060778E-5,3.460449E-3,-1.6299228E-3,1E0,7.2683934E-3,-2.921531E-4,-4.6818657E-3,-1.3657206E-3,6.2075234E-3,1E0,1E0,1E0,1E0,1E0,6.7718136E-3,1E0,-3.1319235E-3,-9.045332E-3,-5.0666123E-3,-5.438695E-3,-1.0387934E-2,-3.3397805E-3,1.9271709E-3,5.2392314E-4,4.752262E-3,-1.3493145E-3,5.6323996E-3,2.040675E-3,7.0834863E-3],"split_indices":[769,930,799,822,1035,381,0,39,603,317,43,930,659,991,0,710,230,1048,0,914,0,403,43,0,0,498,0,498,0,0,11,1125,625,0,0,797,531,0,531,213,0,623,274,0,0,0,0,0,0,1080,0,0,0,0,0,886,665,296,274,837,0,824,0,0,0,0,0,0,0,0,0,0,0,0,0],"split_type":[0,0,0,0,0,0,0,0,0,0,0,0,0,0,0,0,0,0,0,0,0,0,0,0,0,0,0,0,0,0,0,0,0,0,0,0,0,0,0,0,0,0,0,0,0,0,0,0,0,0,0,0,0,0,0,0,0,0,0,0,0,0,0,0,0,0,0,0,0,0,0,0,0,0,0],"sum_hessian":[4.38E2,2.64E2,1.74E2,2.21E2,4.3E1,1.69E2,5E0,8.2E1,1.39E2,2.7E1,1.6E1,1.59E2,1E1,7.5E1,7E0,1.27E2,1.2E1,2.2E1,5E0,9E0,7E0,1.4E2,1.9E1,5E0,5E0,7.1E1,4E0,1.19E2,8E0,4E0,8E0,9E0,1.3E1,5E0,4E0,1.3E2,1E1,8E0,1.1E1,6.7E1,4E0,9.2E1,2.7E1,4E0,4E0,5E0,4E0,7E0,6E0,1.24E2,6E0,6E0,4E0,5E0,6E0,2.5E1,4.2E1,8.4E1,8E0,2.2E1,5E0,1.19E2,5E0,2E1,5E0,3.7E1,5E0,7.6E1,8E0,4E0,4E0,1.8E1,4E0,1.15E2,4E0],"tree_param":{"num_deleted":"0","num_feature":"1163","num_nodes":"75","size_leaf_vector":"1"}},{"base_weights":[-1.9519726E-2,-4.7497648E-1,3.9955917E-1,-8.8109016E-1,1.741066E-1,4.409875E-1,-7.509219E-3,-1.0405558E0,9.686488E-2,3.9572354E-2,9.511229E-3,5.3072166E-1,-4.6771327E-1,-1.1092565E0,2.368591E-3,-2.1028032E-3,4.06504E-1,1.19875334E-1,-5.5588135E-3,6.178333E-1,-3.575483E-1,-8.302117E-1,5.1771603E-3,-1.3004792E0,-5.5653733E-1,6.0523075E-1,-0E0,2.0296859E-2,6.0802847E-3,5.557695E-1,1.6341906E0,-7.551651E-1,-5.673306E-2,-7.4583422E-3,-4.5178774E-1,-1.1412212E0,-1.8238189E0,-8.776126E-1,4.7770874E-3,1.4335912E-3,4.4441777E-3,-2.2524124E-1,3.9565423E-1,5.214824E-1,1.0140961E-2,6.4030276E-3,1.09324595E-2,-6.812415E-3,-5.464124E-4,1.0166425E-3,-1.08872E-3,-3.8662709E-3,-8.10368E-4,-1.0436751E0,-1.71024E0,-1.1075254E-2,-1.6214148E0,-1.1923492E0,-2.30993E-1,-3.8336974E-1,4.1352162E-1,9.338423E-1,-1.0131248E-1,5.5692065E-1,-3.4462984E-3,-5.679677E-3,5.57571E-4,-6.637104E-3,-1.06228525E-2,-8.988222E-3,-5.852891E-3,-7.333748E-3,-1.6665279E-3,2.929758E-4,-2.6754658E-3,2.7028593E-4,-3.0253783E-3,-7.6888135E-4,4.9543977E-3,2.0396623E-3,6.8044695E-3,6.971395E-4,-3.560154E-3,2.403999E-3,5.260726E-3],"categories":[],"categories_nodes":[],"categories_segments":[],"categories_sizes":[],"default_left":[0,0,0,0,0,0,0,0,0,0,0,0,0,0,0,0,0,0,0,0,0,0,0,0,0,0,0,0,0,0,0,0,0,0,0,0,0,0,0,0,0,0,0,0,0,0,0,0,0,0,0,0,0,0,0,0,0,0,0,0,0,0,0,0,0,0,0,0,0,0,0,0,0,0,0,0,0,0,0,0,0,0,0,0,0],"id":10,"left_children":[1,3,5,7,9,11,-1,13,15,17,-1,19,21,23,-1,-1,25,27,-1,29,31,33,-1,35,37,39,-1,41,-1,43,45,47,49,-1,51,53,55,57,-1,-1,-1,59,61,63,-1,-1,-1,-1,-1,-1,-1,-1,-1,65,67,-1,69,71,73,75,77,79,81,83,-1,-1,-1,-1,-1,-1,-1,-1,-1,-1,-1,-1,-1,-1,-1,-1,-1,-1,-1,-1,-1],"loss_changes":[8.803643E1,5.835603E1,1.8891743E1,2.1312866E1,1.9617313E1,1.920044E1,0E0,1.228714E1,3.0760448E0,7.24464E0,0E0,1.661036E1,1.1566147E1,1.162236E1,0E0,0E0,9.675939E-1,7.983877E0,0E0,1.2034996E1,2.2131891E0,4.0524015E0,0E0,6.473007E0,1.4204057E1,6.0910296E-1,0E0,6.299392E0,0E0,8.977943E0,1.6012917E0,3.0408196E0,4.7040564E-1,0E0,9.439914E-1,3.151947E0,8.364334E-1,4.759598E0,0E0,0E0,0E0,4.1647344E0,7.326435E0,7.754925E0,0E0,0E0,0E0,0E0,0E0,0E0,0E0,0E0,0E0,5.9697456E0,8.7623596E-1,0E0,5.852089E-1,3.5975552E0,7.5581044E-1,3.2588272E0,2.7374063E0,2.7405195E0,2.1302702E0,6.423527E0,0E0,0E0,0E0,0E0,0E0,0E0,0E0,0E0,0E0,0E0,0E0,0E0,0E0,0E0,0E0,0E0,0E0,0E0,0E0,0E0,0E0],"parents":[2147483647,0,0,1,1,2,2,3,3,4,4,5,5,7,7,8,8,9,9,11,11,12,12,13,13,16,16,17,17,19,19,20,20,21,21,23,23,24,24,25,25,27,27,29,29,30,30,31,31,32,32,34,34,35,35,36,36,37,37,41,41,42,42,43,43,53,53,54,54,56,56,57,57,58,58,59,59,60,60,61,61,62,62,63,63],"right_children":[2,4,6,8,10,12,-1,14,16,18,-1,20,22,24,-1,-1,26,28,-1,30,32,34,-1,36,38,40,-1,42,-1,44,46,48,50,-1,52,54,56,58,-1,-1,-1,60,62,64,-1,-1,-1,-1,-1,-1,-1,-1,-1,66,68,-1,70,72,74,76,78,80,82,84,-1,-1,-1,-1,-1,-1,-1,-1,-1,-1,-1,-1,-1,-1,-1,-1,-1,-1,-1,-1,-1],"split_conditions":[1E0,1E0,1E0,1E0,1E0,1E0,-7.509219E-3,1E0,1E0,1E0,9.511229E-3,1E0,1E0,1E0,2.368591E-3,-2.1028032E-3,1E0,1E0,-5.5588135E-3,1E0,1E0,1E0,5.1771603E-3,1E0,1E0,1E0,-0E0,1E0,6.0802847E-3,1E0,1E0,1E0,1E0,-7.4583422E-3,1E0,1E0,1E0,1E0,4.7770874E-3,1.4335912E-3,4.4441777E-3,1E0,1E0,1E0,1.0140961E-2,6.4030276E-3,1.09324595E-2,-6.812415E-3,-5.464124E-4,1.0166425E-3,-1.08872E-3,-3.8662709E-3,-8.10368E-4,1E0,1E0,-1.1075254E-2,1E0,1E0,1E0,1E0,1E0,1E0,1E0,1E0,-3.4462984E-3,-5.679677E-3,5.57571E-4,-6.637104E-3,-1.06228525E-2,-8.988222E-3,-5.852891E-3,-7.333748E-3,-1.6665279E-3,2.929758E-4,-2.6754658E-3,2.7028593E-4,-3.0253783E-3,-7.6888135E-4,4.9543977E-3,2.0396623E-3,6.8044695E-3,6.971395E-4,-3.560154E-3,2.403999E-3,5.260726E-3],"split_indices":[277,840,965,498,596,881,0,930,1100,367,0,863,403,868,0,0,1019,11,0,177,601,619,0,106,524,169,0,1086,0,1059,273,1074,524,0,750,67,601,553,0,0,0,51,214,694,0,0,0,0,0,0,0,0,0,906,974,0,946,63,142,459,390,591,51,219,0,0,0,0,0,0,0,0,0,0,0,0,0,0,0,0,0,0,0,0,0],"split_type":[0,0,0,0,0,0,0,0,0,0,0,0,0,0,0,0,0,0,0,0,0,0,0,0,0,0,0,0,0,0,0,0,0,0,0,0,0,0,0,0,0,0,0,0,0,0,0,0,0,0,0,0,0,0,0,0,0,0,0,0,0,0,0,0,0,0,0,0,0,0,0,0,0,0,0,0,0,0,0,0,0,0,0,0,0],"sum_hessian":[4.61E2,2.21E2,2.4E2,1.36E2,8.5E1,2.35E2,5E0,1.17E2,1.9E1,7.9E1,6E0,2.14E2,2.1E1,1.12E2,5E0,7E0,1.2E1,7.4E1,5E0,1.95E2,1.9E1,1.7E1,4E0,8.3E1,2.9E1,8E0,4E0,6.8E1,6E0,1.84E2,1.1E1,8E0,1.1E1,6E0,1.1E1,6.4E1,1.9E1,2.4E1,5E0,4E0,4E0,4.1E1,2.7E1,1.8E2,4E0,7E0,4E0,4E0,4E0,4E0,7E0,5E0,6E0,5.5E1,9E0,6E0,1.3E1,1.6E1,8E0,3.3E1,8E0,1.3E1,1.4E1,1.75E2,5E0,5.1E1,4E0,5E0,4E0,9E0,4E0,1.2E1,4E0,4E0,4E0,1.1E1,2.2E1,4E0,4E0,6E0,7E0,1E1,4E0,1.52E2,2.3E1],"tree_param":{"num_deleted":"0","num_feature":"1163","num_nodes":"85","size_leaf_vector":"1"}},{"base_weights":[7.87923E-3,-3.6144277E-1,5.939055E-1,-6.589766E-1,7.377331E-1,5.35997E-1,1.7281119E0,-8.6842114E-1,-9.113255E-2,9.526534E-2,1.1089159E0,4.6933267E-2,7.1901584E-1,6.0064388E-3,1.0963205E-2,-1.0047725E0,2.2502981E-1,-2.8931612E-1,8.257943E-1,-1.8573664E-1,6.425358E-3,8.9774907E-1,1.8175948E0,-9.007781E-2,4.5773117E-3,6.7107326E-1,1.0019234E-2,-1.1126845E0,1.12389974E-1,3.7388515E-3,-1.364912E-1,-5.135709E-1,2.9033425E-1,2.802051E-3,4.885444E-3,-3.2293121E-3,2.909382E-3,5.7886416E-1,9.105715E-3,7.472752E-3,1.0380806E-2,-2.186607E-1,4.8070326E-3,6.2664324E-1,9.084156E-3,-1.1707166E0,3.041903E-3,5.5628914E-1,-3.7358839E-3,-2.4991322E-3,4.8207265E-4,-4.2313722E-1,-5.7240706E-3,9.0680685E-4,2.207601E-3,-1.4626896E-3,2.1517857E-3,8.3237773E-1,-2.2317312E-4,-9.3072325E-2,-5.5759195E-3,5.016859E-1,1.0189304E0,-1.2278976E0,6.8875536E-4,9.5912954E-4,4.4351914E-3,-6.025652E-1,1.3957317E-3,2.4666633E-3,1.041426E0,3.0246595E-1,-3.2677737E-1,5.6912446E-1,-1.0828694E-3,8.2702506E-1,8.883584E-3,-6.38286E-3,5.636739E-4,-4.531689E-3,-8.2171295E-4,6.3685086E-3,4.090392E-3,3.7933069E-3,-1.1645724E-3,-3.034275E-3,7.1753486E-4,1.2954191E-3,3.4265975E-3,2.6118818E-3,6.069712E-3],"categories":[],"categories_nodes":[],"categories_segments":[],"categories_sizes":[],"default_left":[0,0,0,0,0,0,0,0,0,0,0,0,0,0,0,0,0,0,0,0,0,0,0,0,0,0,0,0,0,0,0,0,0,0,0,0,0,0,0,0,0,0,0,0,0,0,0,0,0,0,0,0,0,0,0,0,0,0,0,0,0,0,0,0,0,0,0,0,0,0,0,0,0,0,0,0,0,0,0,0,0,0,0,0,0,0,0,0,0,0,0],"id":11,"left_children":[1,3,5,7,9,11,13,15,17,19,21,23,25,-1,-1,27,29,31,33,35,-1,37,39,41,-1,43,-1,45,47,-1,49,51,53,-1,-1,-1,55,57,-1,-1,-1,59,-1,61,-1,63,-1,65,-1,-1,-1,67,-1,-1,-1,-1,-1,69,-1,71,-1,73,75,77,-1,-1,-1,79,-1,-1,81,83,85,87,-1,89,-1,-1,-1,-1,-1,-1,-1,-1,-1,-1,-1,-1,-1,-1,-1],"loss_changes":[9.4643265E1,8.7722084E1,1.0826881E1,2.5019333E1,1.3506781E1,1.4353085E1,1.4385414E0,2.3062332E1,1.0355782E1,7.169203E0,5.014885E0,5.3242383E0,6.857723E0,0E0,0E0,1.6623245E1,3.292284E0,6.155848E0,2.2377443E-1,1.5375907E0,0E0,7.9705677E0,7.135391E-2,5.110903E0,0E0,5.441799E0,0E0,1.2612305E1,4.6426854E0,0E0,8.9283115E-1,1.7686691E0,1.5636814E-1,0E0,0E0,0E0,1.5520617E0,3.4039612E0,0E0,0E0,0E0,3.729238E0,0E0,5.1712723E0,0E0,9.167603E0,0E0,8.702936E-1,0E0,0E0,0E0,3.8364148E0,0E0,0E0,0E0,0E0,0E0,8.9209366E-1,0E0,2.7943141E0,0E0,4.066677E0,3.4335442E0,7.686569E0,0E0,0E0,0E0,3.1048613E0,0E0,0E0,1.9511604E-1,2.772139E0,2.562759E0,2.6457539E0,0E0,2.2803068E0,0E0,0E0,0E0,0E0,0E0,0E0,0E0,0E0,0E0,0E0,0E0,0E0,0E0,0E0,0E0],"parents":[2147483647,0,0,1,1,2,2,3,3,4,4,5,5,6,6,7,7,8,8,9,9,10,10,11,11,12,12,15,15,16,16,17,17,18,18,19,19,21,21,22,22,23,23,25,25,27,27,28,28,30,30,31,31,32,32,36,36,37,37,41,41,43,43,45,45,47,47,51,51,57,57,59,59,61,61,62,62,63,63,67,67,70,70,71,71,72,72,73,73,75,75],"right_children":[2,4,6,8,10,12,14,16,18,20,22,24,26,-1,-1,28,30,32,34,36,-1,38,40,42,-1,44,-1,46,48,-1,50,52,54,-1,-1,-1,56,58,-1,-1,-1,60,-1,62,-1,64,-1,66,-1,-1,-1,68,-1,-1,-1,-1,-1,70,-1,72,-1,74,76,78,-1,-1,-1,80,-1,-1,82,84,86,88,-1,90,-1,-1,-1,-1,-1,-1,-1,-1,-1,-1,-1,-1,-1,-1,-1],"split_conditions":[1E0,1E0,1E0,1E0,1E0,1E0,1E0,1E0,1E0,1E0,1E0,1E0,1E0,6.0064388E-3,1.0963205E-2,1E0,1E0,1E0,1E0,1E0,6.425358E-3,1E0,1E0,1E0,4.5773117E-3,1E0,1.0019234E-2,1E0,1E0,3.7388515E-3,1E0,1E0,1E0,2.802051E-3,4.885444E-3,-3.2293121E-3,1E0,1E0,9.105715E-3,7.472752E-3,1.0380806E-2,1E0,4.8070326E-3,1E0,9.084156E-3,1E0,3.041903E-3,1E0,-3.7358839E-3,-2.4991322E-3,4.8207265E-4,1E0,-5.7240706E-3,9.0680685E-4,2.207601E-3,-1.4626896E-3,2.1517857E-3,1E0,-2.2317312E-4,1E0,-5.5759195E-3,1E0,1E0,1E0,6.8875536E-4,9.5912954E-4,4.4351914E-3,1E0,1.3957317E-3,2.4666633E-3,1E0,1E0,1E0,1E0,-1.0828694E-3,1E0,8.883584E-3,-6.38286E-3,5.636739E-4,-4.531689E-3,-8.2171295E-4,6.3685086E-3,4.090392E-3,3.7933069E-3,-1.1645724E-3,-3.034275E-3,7.1753486E-4,1.2954191E-3,3.4265975E-3,2.6118818E-3,6.069712E-3],"split_indices":[769,930,929,888,524,190,43,693,107,133,265,470,177,0,0,1012,207,780,169,279,0,596,682,768,0,976,0,235,869,0,95,336,863,0,0,0,764,366,0,0,0,868,0,1074,0,752,0,1028,0,0,0,203,0,0,0,0,0,1086,0,531,0,94,1055,30,0,0,0,863,0,0,591,832,691,764,0,396,0,0,0,0,0,0,0,0,0,0,0,0,0,0,0],"split_type":[0,0,0,0,0,0,0,0,0,0,0,0,0,0,0,0,0,0,0,0,0,0,0,0,0,0,0,0,0,0,0,0,0,0,0,0,0,0,0,0,0,0,0,0,0,0,0,0,0,0,0,0,0,0,0,0,0,0,0,0,0,0,0,0,0,0,0,0,0,0,0,0,0,0,0,0,0,0,0,0,0,0,0,0,0,0,0,0,0,0,0],"sum_hessian":[4.37E2,2.68E2,1.69E2,2.11E2,5.7E1,1.61E2,8E0,1.54E2,5.7E1,2.1E1,3.6E1,4.4E1,1.17E2,4E0,4E0,1.37E2,1.7E1,4.7E1,1E1,1.7E1,4E0,2.8E1,8E0,3.8E1,6E0,1.13E2,4E0,1.25E2,1.2E1,7E0,1E1,3.4E1,1.3E1,4E0,6E0,5E0,1.2E1,2.1E1,7E0,4E0,4E0,3.4E1,4E0,1.09E2,4E0,1.21E2,4E0,8E0,4E0,4E0,6E0,3E1,4E0,8E0,5E0,7E0,5E0,1.5E1,6E0,3E1,4E0,8.3E1,2.6E1,1.16E2,5E0,4E0,4E0,2.4E1,6E0,6E0,9E0,1.1E1,1.9E1,7.6E1,7E0,2.1E1,5E0,1.12E2,4E0,1.4E1,1E1,4E0,5E0,6E0,5E0,1.2E1,7E0,2.1E1,5.5E1,1.2E1,9E0],"tree_param":{"num_deleted":"0","num_feature":"1163","num_nodes":"91","size_leaf_vector":"1"}},{"base_weights":[9.025183E-2,-3.3341843E-1,5.613442E-1,-5.875872E-1,6.522954E-1,4.1606423E-1,9.7684234E-1,-1.5250902E0,-3.9213443E-1,3.9817032E-1,1.7980008E0,-2.7747676E-1,5.454904E-1,1.1087872E0,-1.0939664E-3,-3.4921723E-3,-1.7245712E0,-5.852626E-1,2.1242462E-1,-3.335569E-3,6.508713E-1,1.1665933E-2,5.9940754E-3,5.393583E-2,-9.173764E-3,4.4672123E-1,1.2500315E0,9.529644E-1,1.0507061E-2,-1.5437099E0,-1.1759517E-2,-6.528517E-1,4.014414E-3,4.0533456E-1,-6.1795143E-3,4.047382E-1,7.1543483E-3,4.236517E-1,-4.7654076E-3,3.3691138E-1,1.3174043E0,1.5370746E0,2.1114007E-3,7.905171E-1,1.0180516E-2,-1.2389678E0,-1.0796543E-2,-7.6445186E-1,6.696837E-2,2.5583228E-1,5.0015706E-3,2.7327615E-1,4.935706E-3,7.755772E-1,-9.820242E-4,4.083917E-1,-2.816478E-3,9.022962E-3,3.975393E-3,1.0717068E-2,4.956984E-3,5.7755107E-1,1.4830761E0,-4.690474E-3,-7.7765617E-3,-9.228979E-1,-1.5486461E-2,4.402197E-1,-4.169959E-3,1.1817876E-1,4.689292E-3,5.7609983E-2,4.239877E-3,2.5471144E-3,5.3379224E-3,3.4676778E-1,7.06231E-3,7.1540016E-1,-7.461854E-5,5.4122466E-3,9.136921E-3,-5.0190357E-3,-0E0,-2.0719378E-3,2.4218285E-3,3.1368681E-3,1.141191E-3,1.9868643E-3,-8.694214E-5,1.2546272E-3,-1.9993265E-3,2.0882231E-3,-3.7850977E-3,2.606639E-3,6.0117766E-3],"categories":[],"categories_nodes":[],"categories_segments":[],"categories_sizes":[],"default_left":[0,0,0,0,0,0,0,0,0,0,0,0,0,0,0,0,0,0,0,0,0,0,0,0,0,0,0,0,0,0,0,0,0,0,0,0,0,0,0,0,0,0,0,0,0,0,0,0,0,0,0,0,0,0,0,0,0,0,0,0,0,0,0,0,0,0,0,0,0,0,0,0,0,0,0,0,0,0,0,0,0,0,0,0,0,0,0,0,0,0,0,0,0,0,0],"id":12,"left_children":[1,3,5,7,9,11,13,15,17,19,21,23,25,27,-1,-1,29,31,33,-1,35,-1,-1,37,-1,39,41,43,-1,45,-1,47,-1,49,-1,51,-1,53,-1,55,57,59,-1,61,-1,63,-1,65,67,69,-1,71,-1,73,-1,75,-1,-1,-1,-1,-1,77,79,-1,-1,81,83,85,-1,87,-1,89,-1,-1,-1,91,-1,93,-1,-1,-1,-1,-1,-1,-1,-1,-1,-1,-1,-1,-1,-1,-1,-1,-1],"loss_changes":[8.348522E1,5.5176327E1,1.180233E1,3.1866741E1,1.2877985E1,1.3241318E1,8.159203E0,4.6429596E0,1.698472E1,1.0029339E1,2.0260296E0,1.2078919E1,8.439751E0,6.677906E0,0E0,0E0,2.049553E0,1.0369995E1,9.788317E0,0E0,5.569169E0,0E0,0E0,7.1077743E0,0E0,1.0249977E1,3.3610153E0,6.6612854E0,0E0,3.034912E0,0E0,8.505627E0,0E0,2.637023E0,0E0,1.637541E0,0E0,3.1398842E0,0E0,6.258312E0,2.720892E0,3.2011814E0,0E0,4.921089E0,0E0,8.9499855E-1,0E0,1.07319565E1,4.7458014E0,2.25816E0,0E0,2.2876303E0,0E0,5.225997E-1,0E0,5.3806257E0,0E0,0E0,0E0,0E0,0E0,2.2722397E0,6.7915535E-1,0E0,0E0,5.661442E0,3.2244961E0,3.1570756E-1,0E0,8.3070296E-1,0E0,1.2446939E0,0E0,0E0,0E0,6.661212E0,0E0,1.8834953E0,0E0,0E0,0E0,0E0,0E0,0E0,0E0,0E0,0E0,0E0,0E0,0E0,0E0,0E0,0E0,0E0,0E0],"parents":[2147483647,0,0,1,1,2,2,3,3,4,4,5,5,6,6,7,7,8,8,9,9,10,10,11,11,12,12,13,13,16,16,17,17,18,18,20,20,23,23,25,25,26,26,27,27,29,29,31,31,33,33,35,35,37,37,39,39,40,40,41,41,43,43,45,45,47,47,48,48,49,49,51,51,53,53,55,55,61,61,62,62,65,65,66,66,67,67,69,69,71,71,75,75,77,77],"right_children":[2,4,6,8,10,12,14,16,18,20,22,24,26,28,-1,-1,30,32,34,-1,36,-1,-1,38,-1,40,42,44,-1,46,-1,48,-1,50,-1,52,-1,54,-1,56,58,60,-1,62,-1,64,-1,66,68,70,-1,72,-1,74,-1,76,-1,-1,-1,-1,-1,78,80,-1,-1,82,84,86,-1,88,-1,90,-1,-1,-1,92,-1,94,-1,-1,-1,-1,-1,-1,-1,-1,-1,-1,-1,-1,-1,-1,-1,-1,-1],"split_conditions":[1E0,1E0,1E0,1E0,1E0,1E0,1E0,1E0,1E0,1E0,1E0,1E0,1E0,1E0,-1.0939664E-3,-3.4921723E-3,1E0,1E0,1E0,-3.335569E-3,1E0,1.1665933E-2,5.9940754E-3,1E0,-9.173764E-3,1E0,1E0,1E0,1.0507061E-2,1E0,-1.1759517E-2,1E0,4.014414E-3,1E0,-6.1795143E-3,1E0,7.1543483E-3,1E0,-4.7654076E-3,1E0,1E0,1E0,2.1114007E-3,1E0,1.0180516E-2,1E0,-1.0796543E-2,1E0,1E0,1E0,5.0015706E-3,1E0,4.935706E-3,1E0,-9.820242E-4,1E0,-2.816478E-3,9.022962E-3,3.975393E-3,1.0717068E-2,4.956984E-3,1E0,1E0,-4.690474E-3,-7.7765617E-3,1E0,1E0,1E0,-4.169959E-3,1E0,4.689292E-3,1E0,4.239877E-3,2.5471144E-3,5.3379224E-3,1E0,7.06231E-3,1E0,-7.461854E-5,5.4122466E-3,9.136921E-3,-5.0190357E-3,-0E0,-2.0719378E-3,2.4218285E-3,3.1368681E-3,1.141191E-3,1.9868643E-3,-8.694214E-5,1.2546272E-3,-1.9993265E-3,2.0882231E-3,-3.7850977E-3,2.606639E-3,6.0117766E-3],"split_indices":[397,768,390,494,510,1025,522,619,446,1048,106,123,373,433,0,0,779,877,706,0,596,0,0,1028,0,507,392,668,0,1028,0,369,0,0,0,1086,0,26,0,863,274,369,0,142,0,43,0,498,206,169,0,274,0,230,0,203,0,0,0,0,0,118,1086,0,0,699,531,294,0,691,0,291,0,0,0,147,0,649,0,0,0,0,0,0,0,0,0,0,0,0,0,0,0,0,0],"split_type":[0,0,0,0,0,0,0,0,0,0,0,0,0,0,0,0,0,0,0,0,0,0,0,0,0,0,0,0,0,0,0,0,0,0,0,0,0,0,0,0,0,0,0,0,0,0,0,0,0,0,0,0,0,0,0,0,0,0,0,0,0,0,0,0,0,0,0,0,0,0,0,0,0,0,0,0,0,0,0,0,0,0,0,0,0,0,0,0,0,0,0,0,0,0,0],"sum_hessian":[4.18E2,2.2E2,1.98E2,1.75E2,4.5E1,1.47E2,5.1E1,3E1,1.45E2,3.7E1,8E0,2.3E1,1.24E2,4.6E1,5E0,6E0,2.4E1,1.1E2,3.5E1,7E0,3E1,4E0,4E0,1.9E1,4E0,1.09E2,1.5E1,4E1,6E0,1.9E1,5E0,1.05E2,5E0,3.1E1,4E0,2.3E1,7E0,1.4E1,5E0,9.7E1,1.2E1,1.1E1,4E0,3.5E1,5E0,1.3E1,6E0,9.1E1,1.4E1,2.5E1,6E0,1.9E1,4E0,9E0,5E0,9E1,7E0,6E0,6E0,5E0,6E0,2.7E1,8E0,7E0,6E0,7.5E1,1.6E1,1E1,4E0,2.1E1,4E0,1.4E1,5E0,5E0,4E0,8.5E1,5E0,2.2E1,5E0,4E0,4E0,6.9E1,6E0,9E0,7E0,5E0,5E0,7E0,1.4E1,1E1,4E0,8E1,5E0,1.6E1,6E0],"tree_param":{"num_deleted":"0","num_feature":"1163","num_nodes":"95","size_leaf_vector":"1"}},{"base_weights":[-3.3223208E-2,-4.3602455E-1,6.156447E-1,-7.544192E-1,6.1281043E-1,7.083735E-1,-3.4369186E-1,-9.919281E-1,-2.7736977E-1,4.274392E-1,1.1166267E-2,9.546474E-1,4.856632E-1,-5.843817E-1,1.1873187E-3,-1.2172774E0,-4.6982166E-1,-1.3493869E-1,-9.050711E-1,5.3678846E-1,-3.087503E-3,1.10174E0,-1.8224042E-2,4.1805983E-1,5.230926E-3,-4.5392336E-3,-1.1663119E-3,-1.3492957E0,-1.23908505E-1,-6.818527E-1,4.912337E-3,-8.761106E-1,1.3078154E-2,-5.652868E-3,-3.5935466E-3,2.536914E-1,8.777682E-1,6.7653567E-1,1.2946507E0,-1.1358954E-3,1.1099706E-3,5.0405747E-1,-3.2740715E-3,-1.7620476E0,-1.2031976E0,5.9218216E-4,-2.5079714E-3,-8.8543886E-1,-0E0,-6.1849384E-3,-1.9285011E-3,-1.5778136E-1,8.056928E-1,-3.21824E-1,5.9696245E-1,1.2390841E0,-3.8358936E-4,2.0967703E-1,1.0036801E0,1.42829E0,1.5355676E-3,5.597466E-1,-6.748457E-4,-1.642298E0,-1.0446677E-2,-1.1101762E0,-1.0050876E-2,-1.0586766E0,-5.0592195E-4,1.7312254E-3,-1.6551738E-3,-1.3655176E-2,-3.7746963E-3,2.7652893E-3,5.0926534E-3,-3.3198937E-3,-3.651729E-4,6.5362285E-5,8.3130497E-1,1.4128969E0,4.101471E-3,-1.9174443E-3,4.089374E-3,6.4796433E-3,3.6467328E-3,1.29917E0,1.08573325E-2,6.041902E-1,3.0562695E-4,-7.3085832E-3,-1.0575155E-2,-4.5537E-3,-7.9124775E-3,-4.210902E-3,-7.995943E-3,-1.4719055E-3,1.732938E-3,5.539905E-3,2.637301E-3,4.1642073E-3,9.305791E-3,5.5384743E-3,8.70414E-3,2.6040834E-3,6.1908257E-3],"categories":[],"categories_nodes":[],"categories_segments":[],"categories_sizes":[],"default_left":[0,0,0,0,0,0,0,0,0,0,0,0,0,0,0,0,0,0,0,0,0,0,0,0,0,0,0,0,0,0,0,0,0,0,0,0,0,0,0,0,0,0,0,0,0,0,0,0,0,0,0,0,0,0,0,0,0,0,0,0,0,0,0,0,0,0,0,0,0,0,0,0,0,0,0,0,0,0,0,0,0,0,0,0,0,0,0,0,0,0,0,0,0,0,0,0,0,0,0,0,0,0,0,0,0],"id":13,"left_children":[1,3,5,7,9,11,13,15,17,19,-1,21,23,25,-1,27,29,31,33,35,-1,37,39,41,-1,-1,-1,43,45,47,-1,49,51,-1,-1,53,55,57,59,-1,-1,61,-1,63,65,-1,-1,67,69,-1,-1,71,73,75,77,79,-1,81,83,85,-1,87,-1,89,-1,91,-1,93,-1,-1,-1,95,-1,-1,-1,-1,-1,-1,97,99,-1,-1,-1,-1,-1,101,-1,103,-1,-1,-1,-1,-1,-1,-1,-1,-1,-1,-1,-1,-1,-1,-1,-1,-1],"loss_changes":[1.0928864E2,8.624873E1,1.4296661E1,2.2313057E1,1.773782E1,7.847931E0,2.0148153E0,1.5345871E1,5.811499E0,6.20813E0,0E0,9.979866E0,2.7568817E0,1.0316746E0,0E0,1.3155762E1,1.239017E1,6.0075216E0,2.744999E-1,4.6239147E0,0E0,4.67939E0,4.622441E-1,6.396043E0,0E0,0E0,0E0,4.493866E0,9.620445E-1,4.9276485E0,0E0,1.4287567E0,6.17393E0,0E0,0E0,5.395754E0,7.727165E0,2.7958803E0,5.236908E0,0E0,0E0,2.3237572E0,0E0,1.756134E-1,4.105652E0,0E0,0E0,3.5753593E0,9.4082576E-1,0E0,0E0,3.1285362E0,2.4939823E-1,7.9403174E-1,2.2689662E0,8.715763E-1,0E0,2.989418E0,6.2812424E-1,2.8953323E0,0E0,1.2510376E0,0E0,7.6981354E-1,0E0,4.840225E0,0E0,2.2497826E0,0E0,0E0,0E0,3.0498884E0,0E0,0E0,0E0,0E0,0E0,0E0,8.23679E-1,2.5086613E0,0E0,0E0,0E0,0E0,0E0,2.201908E0,0E0,2.6497726E0,0E0,0E0,0E0,0E0,0E0,0E0,0E0,0E0,0E0,0E0,0E0,0E0,0E0,0E0,0E0,0E0,0E0],"parents":[2147483647,0,0,1,1,2,2,3,3,4,4,5,5,6,6,7,7,8,8,9,9,11,11,12,12,13,13,15,15,16,16,17,17,18,18,19,19,21,21,22,22,23,23,27,27,28,28,29,29,31,31,32,32,35,35,36,36,37,37,38,38,41,41,43,43,44,44,47,47,48,48,51,51,52,52,53,53,54,54,55,55,57,57,58,58,59,59,61,61,63,63,65,65,67,67,71,71,78,78,79,79,85,85,87,87],"right_children":[2,4,6,8,10,12,14,16,18,20,-1,22,24,26,-1,28,30,32,34,36,-1,38,40,42,-1,-1,-1,44,46,48,-1,50,52,-1,-1,54,56,58,60,-1,-1,62,-1,64,66,-1,-1,68,70,-1,-1,72,74,76,78,80,-1,82,84,86,-1,88,-1,90,-1,92,-1,94,-1,-1,-1,96,-1,-1,-1,-1,-1,-1,98,100,-1,-1,-1,-1,-1,102,-1,104,-1,-1,-1,-1,-1,-1,-1,-1,-1,-1,-1,-1,-1,-1,-1,-1,-1],"split_conditions":[1E0,1E0,1E0,1E0,1E0,1E0,1E0,1E0,1E0,1E0,1.1166267E-2,1E0,1E0,1E0,1.1873187E-3,1E0,1E0,1E0,1E0,1E0,-3.087503E-3,1E0,1E0,1E0,5.230926E-3,-4.5392336E-3,-1.1663119E-3,1E0,1E0,1E0,4.912337E-3,1E0,1E0,-5.652868E-3,-3.5935466E-3,1E0,1E0,1E0,1E0,-1.1358954E-3,1.1099706E-3,1E0,-3.2740715E-3,1E0,1E0,5.9218216E-4,-2.5079714E-3,1E0,1E0,-6.1849384E-3,-1.9285011E-3,1E0,1E0,1E0,1E0,1E0,-3.8358936E-4,1E0,1E0,1E0,1.5355676E-3,1E0,-6.748457E-4,1E0,-1.0446677E-2,1E0,-1.0050876E-2,1E0,-5.0592195E-4,1.7312254E-3,-1.6551738E-3,1E0,-3.7746963E-3,2.7652893E-3,5.0926534E-3,-3.3198937E-3,-3.651729E-4,6.5362285E-5,1E0,1E0,4.101471E-3,-1.9174443E-3,4.089374E-3,6.4796433E-3,3.6467328E-3,1E0,1.08573325E-2,1E0,3.0562695E-4,-7.3085832E-3,-1.0575155E-2,-4.5537E-3,-7.9124775E-3,-4.210902E-3,-7.995943E-3,-1.4719055E-3,1.732938E-3,5.539905E-3,2.637301E-3,4.1642073E-3,9.305791E-3,5.5384743E-3,8.70414E-3,2.6040834E-3,6.1908257E-3],"split_indices":[769,768,863,840,265,955,390,1114,913,666,0,26,817,55,0,891,1148,494,955,649,0,43,65,402,0,0,0,213,662,693,0,1073,376,0,0,328,203,601,169,0,0,522,0,203,660,0,0,410,207,0,0,510,375,476,1114,207,0,659,659,905,0,127,0,274,0,920,0,622,0,0,0,888,0,0,0,0,0,0,524,840,0,0,0,0,0,649,0,1055,0,0,0,0,0,0,0,0,0,0,0,0,0,0,0,0,0],"split_type":[0,0,0,0,0,0,0,0,0,0,0,0,0,0,0,0,0,0,0,0,0,0,0,0,0,0,0,0,0,0,0,0,0,0,0,0,0,0,0,0,0,0,0,0,0,0,0,0,0,0,0,0,0,0,0,0,0,0,0,0,0,0,0,0,0,0,0,0,0,0,0,0,0,0,0,0,0,0,0,0,0,0,0,0,0,0,0,0,0,0,0,0,0,0,0,0,0,0,0,0,0,0,0,0,0],"sum_hessian":[4.18E2,2.58E2,1.6E2,1.98E2,6E1,1.46E2,1.4E1,1.32E2,6.6E1,5.4E1,6E0,6.9E1,7.7E1,1E1,4E0,9.2E1,4E1,5.4E1,1.2E1,4.9E1,5E0,6E1,9E0,6.9E1,8E0,5E0,5E0,8.2E1,1E1,3.5E1,5E0,9E0,4.5E1,5E0,7E0,2.7E1,2.2E1,1.9E1,4.1E1,5E0,4E0,6.4E1,5E0,2.1E1,6.1E1,6E0,4E0,2.7E1,8E0,5E0,4E0,3.7E1,8E0,1E1,1.7E1,1.6E1,6E0,8E0,1.1E1,3.6E1,5E0,5.9E1,5E0,1.6E1,5E0,5.5E1,6E0,2.2E1,5E0,4E0,4E0,3E1,7E0,4E0,4E0,4E0,6E0,5E0,1.2E1,1.1E1,5E0,4E0,4E0,5E0,6E0,3.1E1,5E0,5.4E1,5E0,1.2E1,4E0,3.9E1,1.6E1,1.6E1,6E0,1.7E1,1.3E1,6E0,6E0,5E0,6E0,2.2E1,9E0,4.8E1,6E0],"tree_param":{"num_deleted":"0","num_feature":"1163","num_nodes":"105","size_leaf_vector":"1"}},{"base_weights":[5.192342E-2,-3.4285185E-1,5.5162245E-1,-5.571827E-1,7.945148E-1,1.58492E-1,7.4406815E-1,-1.0898192E0,-2.6232722E-1,1.3245827E0,1.6197592E-1,-3.595382E-2,7.073278E-1,6.5839773E-1,1.4586464E0,-1.1740187E0,-0E0,-4.4593456E-1,9.165501E-1,9.090912E-1,1.030452E-2,-2.1564306E-1,6.92355E-3,-7.785728E-1,2.3313037E-1,1.0059114E0,-8.548185E-4,5.2703154E-1,1.0810348E0,4.12366E-3,9.855496E-3,-1.3228538E0,-7.756688E-1,-8.4512347E-1,-7.248229E-2,7.0916307E-3,6.251008E-1,3.8706833E-1,8.520826E-3,-3.0608359E-3,1.1793969E-3,-1.2833936E0,1.0879982E-3,3.3864807E-2,6.5513877E-3,7.383531E-3,1.5728567E-3,4.8415956E-1,5.8692195E-3,9.101734E-1,9.777534E-3,-1.4040586E0,-2.0840152E-3,-3.6678913E-1,-6.9617233E-3,-9.6347547E-1,1.3573656E-3,-1.926113E-1,4.607459E-3,4.3214625E-3,8.7749213E-4,-1.8049713E-3,5.729181E-3,-9.146828E-3,-3.4298657E-3,-3.0820996E-3,2.5643513E-1,4.4245267E-1,5.363124E-3,7.254948E-1,7.4767377E-3,-1.4796703E0,-3.1429522E-3,2.7637067E-5,-4.1055637E-3,-1.0865625E0,1.8190728E-3,-1.3375734E-2,-6.5699285E-1,3.755769E-1,-1.1329093E-3,3.9619064E-1,5.2672876E-3,2.0582974E-3,9.877935E-1,-7.883652E-3,-4.5760064E-3,-5.9301113E-3,-3.3575157E-4,-7.099884E-4,5.0259572E-3,-5.8578025E-3,-6.076907E-4,2.4696002E-3,-0E0,1.4586784E-3,3.6979706E-3,3.6719905E-3,6.29377E-3],"categories":[],"categories_nodes":[],"categories_segments":[],"categories_sizes":[],"default_left":[0,0,0,0,0,0,0,0,0,0,0,0,0,0,0,0,0,0,0,0,0,0,0,0,0,0,0,0,0,0,0,0,0,0,0,0,0,0,0,0,0,0,0,0,0,0,0,0,0,0,0,0,0,0,0,0,0,0,0,0,0,0,0,0,0,0,0,0,0,0,0,0,0,0,0,0,0,0,0,0,0,0,0,0,0,0,0,0,0,0,0,0,0,0,0,0,0,0,0],"id":14,"left_children":[1,3,5,7,9,11,13,15,17,19,21,23,25,27,29,31,-1,33,35,37,-1,39,-1,41,43,45,-1,47,49,-1,-1,51,53,55,57,-1,59,61,-1,-1,-1,63,-1,65,-1,-1,-1,67,-1,69,-1,71,-1,73,-1,75,-1,77,-1,-1,-1,-1,-1,-1,-1,-1,79,81,-1,83,-1,85,-1,-1,-1,87,-1,89,91,93,-1,95,-1,-1,97,-1,-1,-1,-1,-1,-1,-1,-1,-1,-1,-1,-1,-1,-1],"loss_changes":[8.271152E1,5.7091877E1,1.3917633E1,3.0814438E1,1.2294958E1,6.578517E0,7.3262787E0,6.470459E0,2.7512863E1,5.716633E0,8.021966E0,9.075402E0,4.308282E0,5.978504E0,3.8620586E0,3.5837326E0,0E0,1.633157E1,2.2432985E0,5.1984177E0,0E0,2.3909385E0,0E0,6.200912E0,6.9890676E0,3.7438898E0,0E0,2.1660519E0,3.4850044E0,0E0,0E0,3.256485E0,4.3674755E0,7.1005554E0,6.775578E0,0E0,1.0926538E0,4.7037983E0,0E0,0E0,0E0,2.3087645E0,0E0,4.0531E0,0E0,0E0,0E0,1.7932987E0,0E0,2.0964031E0,0E0,2.2600021E0,0E0,1.9454098E0,0E0,7.957428E0,0E0,4.1969914E0,0E0,0E0,0E0,0E0,0E0,0E0,0E0,0E0,1.2350694E0,1.9613237E0,0E0,1.2513924E0,0E0,1.7920609E0,0E0,0E0,0E0,4.359844E0,0E0,4.8034496E0,3.7638931E0,7.8374434E-1,0E0,2.4077377E0,0E0,0E0,3.67733E-1,0E0,0E0,0E0,0E0,0E0,0E0,0E0,0E0,0E0,0E0,0E0,0E0,0E0,0E0],"parents":[2147483647,0,0,1,1,2,2,3,3,4,4,5,5,6,6,7,7,8,8,9,9,10,10,11,11,12,12,13,13,14,14,15,15,17,17,18,18,19,19,21,21,23,23,24,24,25,25,27,27,28,28,31,31,32,32,33,33,34,34,36,36,37,37,41,41,43,43,47,47,49,49,51,51,53,53,55,55,57,57,66,66,67,67,69,69,71,71,75,75,77,77,78,78,79,79,81,81,84,84],"right_children":[2,4,6,8,10,12,14,16,18,20,22,24,26,28,30,32,-1,34,36,38,-1,40,-1,42,44,46,-1,48,50,-1,-1,52,54,56,58,-1,60,62,-1,-1,-1,64,-1,66,-1,-1,-1,68,-1,70,-1,72,-1,74,-1,76,-1,78,-1,-1,-1,-1,-1,-1,-1,-1,80,82,-1,84,-1,86,-1,-1,-1,88,-1,90,92,94,-1,96,-1,-1,98,-1,-1,-1,-1,-1,-1,-1,-1,-1,-1,-1,-1,-1,-1],"split_conditions":[1E0,1E0,1E0,1E0,1E0,1E0,1E0,1E0,1E0,1E0,1E0,1E0,1E0,1E0,1E0,1E0,-0E0,1E0,1E0,1E0,1.030452E-2,1E0,6.92355E-3,1E0,1E0,1E0,-8.548185E-4,1E0,1E0,4.12366E-3,9.855496E-3,1E0,1E0,1E0,1E0,7.0916307E-3,1E0,1E0,8.520826E-3,-3.0608359E-3,1.1793969E-3,1E0,1.0879982E-3,1E0,6.5513877E-3,7.383531E-3,1.5728567E-3,1E0,5.8692195E-3,1E0,9.777534E-3,1E0,-2.0840152E-3,1E0,-6.9617233E-3,1E0,1.3573656E-3,1E0,4.607459E-3,4.3214625E-3,8.7749213E-4,-1.8049713E-3,5.729181E-3,-9.146828E-3,-3.4298657E-3,-3.0820996E-3,1E0,1E0,5.363124E-3,1E0,7.4767377E-3,1E0,-3.1429522E-3,2.7637067E-5,-4.1055637E-3,1E0,1.8190728E-3,1E0,1E0,1E0,-1.1329093E-3,1E0,5.2672876E-3,2.0582974E-3,1E0,-7.883652E-3,-4.5760064E-3,-5.9301113E-3,-3.3575157E-4,-7.099884E-4,5.0259572E-3,-5.8578025E-3,-6.076907E-4,2.4696002E-3,-0E0,1.4586784E-3,3.6979706E-3,3.6719905E-3,6.29377E-3],"split_indices":[769,930,190,822,1055,219,1055,868,26,855,184,43,423,390,1074,974,0,524,43,1105,0,1060,0,369,266,994,0,63,691,0,0,612,219,817,349,0,66,888,0,0,0,710,0,440,0,0,0,662,0,498,0,541,0,459,0,623,0,541,0,0,0,0,0,0,0,0,92,623,0,396,0,537,0,0,0,891,0,306,682,503,0,7,0,0,932,0,0,0,0,0,0,0,0,0,0,0,0,0,0],"split_type":[0,0,0,0,0,0,0,0,0,0,0,0,0,0,0,0,0,0,0,0,0,0,0,0,0,0,0,0,0,0,0,0,0,0,0,0,0,0,0,0,0,0,0,0,0,0,0,0,0,0,0,0,0,0,0,0,0,0,0,0,0,0,0,0,0,0,0,0,0,0,0,0,0,0,0,0,0,0,0,0,0,0,0,0,0,0,0,0,0,0,0,0,0,0,0,0,0,0,0],"sum_hessian":[4.19E2,2.34E2,1.85E2,1.97E2,3.7E1,6.1E1,1.24E2,7E1,1.27E2,2E1,1.7E1,4.5E1,1.6E1,1.11E2,1.3E1,6.5E1,5E0,1.1E2,1.7E1,1.3E1,7E0,1.3E1,4E0,1.2E1,3.3E1,1.2E1,4E0,8.5E1,2.6E1,6E0,7E0,4.7E1,1.8E1,5.3E1,5.7E1,6E0,1.1E1,8E0,5E0,7E0,6E0,8E0,4E0,2.8E1,5E0,7E0,5E0,8E1,5E0,2.2E1,4E0,4.3E1,4E0,1.1E1,7E0,4.8E1,5E0,5.1E1,6E0,7E0,4E0,4E0,4E0,4E0,4E0,7E0,2.1E1,7.5E1,5E0,1.7E1,5E0,3.9E1,4E0,6E0,5E0,4.4E1,4E0,3.7E1,1.4E1,1.7E1,4E0,7E1,5E0,8E0,9E0,3.3E1,6E0,4E1,4E0,3.3E1,4E0,7E0,7E0,1.3E1,4E0,5.4E1,1.6E1,5E0,4E0],"tree_param":{"num_deleted":"0","num_feature":"1163","num_nodes":"99","size_leaf_vector":"1"}},{"base_weights":[2.0891044E-2,-4.2594138E-1,5.167886E-1,-5.986778E-1,5.865089E-1,5.581227E-1,-7.817727E-3,-1.0727528E0,-3.1294236E-1,8.7290925E-1,-3.3338E-1,4.1778725E-1,1.0071782E0,-1.2390789E0,1.7519346E-3,-4.3071404E-1,8.930436E-1,2.9491863E-1,1.2865387E0,1.9977974E-4,-3.5936537E-3,3.549603E-1,1.5666701E0,1.123536E0,-1.385887E-3,-1.6358311E-3,-1.3130264E0,1.8029087E-3,-2.5600677E-3,-3.6252E-1,-1.1156611E-2,2.5961858E-3,5.423459E-3,-1.298849E-3,6.3421475E-3,9.9772924E-1,1.0084563E-2,2.7627823E-1,1.3303279E0,5.0142617E-3,1.0360651E-2,8.0957866E-1,1.4728924E0,-1.4667013E0,-6.8445903E-1,-5.347608E-1,1.3906798E-1,2.6152998E-3,6.8234345E-3,2.2659382E-1,7.805365E-3,8.581533E-3,4.861374E-3,3.1860143E-1,1.2131124E0,1.744152E0,2.857435E-3,-1.3617332E0,-1.2699144E-2,-2.9301763E-1,-7.1047717E-3,-6.0963625E-1,4.422111E-3,-1.13855E-1,4.501936E-3,5.070931E-2,6.6746634E-1,4.6784603E-3,-9.450452E-4,8.6182095E-3,2.927307E-3,1.0535743E-2,7.771076E-3,-7.6088803E-3,-3.6019206E-3,2.4656675E-4,-3.241739E-3,-4.6141897E-3,-1.0018821E-3,-2.7315435E-3,1.027467E-3,-2.2414725E-3,1.5090497E-3,5.0825835E-3,8.952952E-4],"categories":[],"categories_nodes":[],"categories_segments":[],"categories_sizes":[],"default_left":[0,0,0,0,0,0,0,0,0,0,0,0,0,0,0,0,0,0,0,0,0,0,0,0,0,0,0,0,0,0,0,0,0,0,0,0,0,0,0,0,0,0,0,0,0,0,0,0,0,0,0,0,0,0,0,0,0,0,0,0,0,0,0,0,0,0,0,0,0,0,0,0,0,0,0,0,0,0,0,0,0,0,0,0,0],"id":15,"left_children":[1,3,5,7,9,11,-1,13,15,17,19,21,23,25,27,29,31,33,35,-1,-1,37,39,41,-1,-1,43,-1,-1,45,-1,-1,-1,-1,-1,47,-1,49,51,-1,-1,53,55,57,59,61,63,-1,-1,65,-1,-1,-1,67,69,71,-1,73,-1,75,-1,77,-1,79,-1,81,83,-1,-1,-1,-1,-1,-1,-1,-1,-1,-1,-1,-1,-1,-1,-1,-1,-1,-1],"loss_changes":[9.865615E1,4.097717E1,1.815643E1,2.6957535E1,9.057529E0,1.2891342E1,0E0,1.3524147E1,1.7768356E1,6.0712624E0,1.2242466E0,1.1197453E1,7.4387856E0,4.211502E0,1.8679335E0,1.3715288E1,6.063938E-1,6.1102114E0,2.7349396E0,0E0,0E0,1.1349806E1,1.8466072E0,4.6389275E0,0E0,0E0,5.5272827E0,0E0,0E0,9.552091E0,0E0,0E0,0E0,0E0,0E0,1.7061319E0,0E0,8.696317E0,1.1450844E0,0E0,0E0,4.609666E0,4.8683167E0,4.7500687E0,3.3051586E0,8.755327E0,5.486017E0,0E0,0E0,1.0335764E1,0E0,0E0,0E0,3.5563426E0,3.9060497E0,4.801178E-1,0E0,4.231743E0,0E0,1.037965E0,0E0,9.899664E0,0E0,2.9533587E0,0E0,1.2042777E1,6.3782845E0,0E0,0E0,0E0,0E0,0E0,0E0,0E0,0E0,0E0,0E0,0E0,0E0,0E0,0E0,0E0,0E0,0E0,0E0],"parents":[2147483647,0,0,1,1,2,2,3,3,4,4,5,5,7,7,8,8,9,9,10,10,11,11,12,12,13,13,14,14,15,15,16,16,17,17,18,18,21,21,22,22,23,23,26,26,29,29,35,35,37,37,38,38,41,41,42,42,43,43,44,44,45,45,46,46,49,49,53,53,54,54,55,55,57,57,59,59,61,61,63,63,65,65,66,66],"right_children":[2,4,6,8,10,12,-1,14,16,18,20,22,24,26,28,30,32,34,36,-1,-1,38,40,42,-1,-1,44,-1,-1,46,-1,-1,-1,-1,-1,48,-1,50,52,-1,-1,54,56,58,60,62,64,-1,-1,66,-1,-1,-1,68,70,72,-1,74,-1,76,-1,78,-1,80,-1,82,84,-1,-1,-1,-1,-1,-1,-1,-1,-1,-1,-1,-1,-1,-1,-1,-1,-1,-1],"split_conditions":[1E0,1E0,1E0,1E0,1E0,1E0,-7.817727E-3,1E0,1E0,1E0,1E0,1E0,1E0,1E0,1E0,1E0,1E0,1E0,1E0,1.9977974E-4,-3.5936537E-3,1E0,1E0,1E0,-1.385887E-3,-1.6358311E-3,1E0,1.8029087E-3,-2.5600677E-3,1E0,-1.1156611E-2,2.5961858E-3,5.423459E-3,-1.298849E-3,6.3421475E-3,1E0,1.0084563E-2,1E0,1E0,5.0142617E-3,1.0360651E-2,1E0,1E0,1E0,1E0,1E0,1E0,2.6152998E-3,6.8234345E-3,1E0,7.805365E-3,8.581533E-3,4.861374E-3,1E0,1E0,1E0,2.857435E-3,1E0,-1.2699144E-2,1E0,-7.1047717E-3,1E0,4.422111E-3,1E0,4.501936E-3,1E0,1E0,4.6784603E-3,-9.450452E-4,8.6182095E-3,2.927307E-3,1.0535743E-2,7.771076E-3,-7.6088803E-3,-3.6019206E-3,2.4656675E-4,-3.241739E-3,-4.6141897E-3,-1.0018821E-3,-2.7315435E-3,1.027467E-3,-2.2414725E-3,1.5090497E-3,5.0825835E-3,8.952952E-4],"split_indices":[397,930,151,822,203,390,0,142,603,92,728,929,306,992,837,687,622,317,682,0,0,507,203,396,0,0,840,0,0,498,0,0,0,0,0,840,0,458,377,0,0,691,369,369,573,877,837,0,0,396,0,0,0,622,92,659,0,1048,0,698,0,682,0,764,0,1114,365,0,0,0,0,0,0,0,0,0,0,0,0,0,0,0,0,0,0],"split_type":[0,0,0,0,0,0,0,0,0,0,0,0,0,0,0,0,0,0,0,0,0,0,0,0,0,0,0,0,0,0,0,0,0,0,0,0,0,0,0,0,0,0,0,0,0,0,0,0,0,0,0,0,0,0,0,0,0,0,0,0,0,0,0,0,0,0,0,0,0,0,0,0,0,0,0,0,0,0,0,0,0,0,0,0,0],"sum_hessian":[4.45E2,2.34E2,2.11E2,2E2,3.4E1,2.07E2,4E0,7.5E1,1.25E2,2.6E1,8E0,1.58E2,4.9E1,6.5E1,1E1,1.14E2,1.1E1,1.1E1,1.5E1,4E0,4E0,1.5E2,8E0,4.5E1,4E0,5E0,6E1,6E0,4E0,1.1E2,4E0,4E0,7E0,7E0,4E0,1.1E1,4E0,1.39E2,1.1E1,4E0,4E0,2.4E1,2.1E1,4.8E1,1.2E1,8.2E1,2.8E1,5E0,6E0,1.34E2,5E0,5E0,6E0,1.1E1,1.3E1,1.6E1,5E0,4.4E1,4E0,8E0,4E0,7.8E1,4E0,2.1E1,7E0,9.6E1,3.8E1,5E0,6E0,7E0,6E0,5E0,1.1E1,3.5E1,9E0,4E0,4E0,4.4E1,3.4E1,9E0,1.2E1,3.2E1,6.4E1,2.2E1,1.6E1],"tree_param":{"num_deleted":"0","num_feature":"1163","num_nodes":"85","size_leaf_vector":"1"}},{"base_weights":[2.7698448E-2,-8.17646E-1,2.4134023E-1,-1.1431328E0,1.3551232E0,2.1288183E-2,5.3193474E-1,-1.2430056E0,-8.5765444E-4,3.356888E-3,1.0650848E-2,-1.8822108E-1,6.684276E-1,4.5047563E-1,1.8939412E0,-1.1609578E0,-1.0154551E-2,-2.937776E-1,9.279726E-3,5.433179E-1,9.735778E-3,-4.4889995E-1,5.4571635E-1,1.0833052E-2,7.774661E-3,-1.2293973E0,-7.967612E-4,-3.485695E-1,7.4266884E-3,4.0220731E-1,7.85324E-3,-1.1533213E0,3.3124643E-3,-1.7401654E-1,6.608934E-1,-1.2814794E0,-2.5236995E-3,-3.0254498E-1,-8.901795E-3,2.8033558E-1,5.845483E-3,-2.5470904E-3,-8.744743E-3,-5.866925E-1,5.643159E-3,7.200343E-1,-6.0631797E-2,-1.3378973E0,-2.7721918E-3,-4.001248E-1,5.657184E-1,7.786524E-2,7.324576E-1,-5.251254E-3,-1.1991209E-4,8.031369E-1,4.652608E-2,-3.0658909E-3,2.3662369E-3,-7.245069E-3,-4.4315434E-3,-1.6761605E-3,-5.7875947E-3,5.0034486E-3,-1.9667894E-3,4.275638E-3,-4.2532402E-4,1.1149843E-3,5.246668E-3,4.273295E-3,-1.7961061E-4,-1.4474505E-3,2.3185567E-3],"categories":[],"categories_nodes":[],"categories_segments":[],"categories_sizes":[],"default_left":[0,0,0,0,0,0,0,0,0,0,0,0,0,0,0,0,0,0,0,0,0,0,0,0,0,0,0,0,0,0,0,0,0,0,0,0,0,0,0,0,0,0,0,0,0,0,0,0,0,0,0,0,0,0,0,0,0,0,0,0,0,0,0,0,0,0,0,0,0,0,0,0,0],"id":16,"left_children":[1,3,5,7,9,11,13,15,-1,-1,-1,17,19,21,23,25,-1,27,-1,29,-1,31,33,-1,-1,35,-1,37,-1,39,-1,41,-1,43,45,47,-1,49,-1,51,-1,-1,-1,53,-1,55,57,59,-1,61,63,65,67,-1,-1,69,71,-1,-1,-1,-1,-1,-1,-1,-1,-1,-1,-1,-1,-1,-1,-1,-1],"loss_changes":[7.620377E1,6.0320774E1,2.1509342E1,7.0522537E0,5.5078583E0,2.6097492E1,1.5819569E1,3.8383102E0,0E0,0E0,0E0,3.1234463E1,7.223612E0,1.1776094E1,1.0445595E-1,4.054062E0,0E0,1.3420021E1,0E0,6.0219564E0,0E0,1.0372791E1,1.0339195E1,0E0,0E0,1.9428253E0,0E0,8.610939E0,0E0,3.4084125E0,0E0,2.8309307E0,0E0,9.213928E0,4.6289673E0,1.9475784E0,0E0,1.1031678E1,0E0,2.9573815E0,0E0,0E0,0E0,3.325872E0,0E0,5.4727364E0,2.43002E0,2.1424637E0,0E0,5.5932846E0,5.5544634E0,2.9962506E0,1.5020108E0,0E0,0E0,3.8792686E0,1.5838236E0,0E0,0E0,0E0,0E0,0E0,0E0,0E0,0E0,0E0,0E0,0E0,0E0,0E0,0E0,0E0,0E0],"parents":[2147483647,0,0,1,1,2,2,3,3,4,4,5,5,6,6,7,7,11,11,12,12,13,13,14,14,15,15,17,17,19,19,21,21,22,22,25,25,27,27,29,29,31,31,33,33,34,34,35,35,37,37,39,39,43,43,45,45,46,46,47,47,49,49,50,50,51,51,52,52,55,55,56,56],"right_children":[2,4,6,8,10,12,14,16,-1,-1,-1,18,20,22,24,26,-1,28,-1,30,-1,32,34,-1,-1,36,-1,38,-1,40,-1,42,-1,44,46,48,-1,50,-1,52,-1,-1,-1,54,-1,56,58,60,-1,62,64,66,68,-1,-1,70,72,-1,-1,-1,-1,-1,-1,-1,-1,-1,-1,-1,-1,-1,-1,-1,-1],"split_conditions":[1E0,1E0,1E0,1E0,1E0,1E0,1E0,1E0,-8.5765444E-4,3.356888E-3,1.0650848E-2,1E0,1E0,1E0,1E0,1E0,-1.0154551E-2,1E0,9.279726E-3,1E0,9.735778E-3,1E0,1E0,1.0833052E-2,7.774661E-3,1E0,-7.967612E-4,1E0,7.4266884E-3,1E0,7.85324E-3,1E0,3.3124643E-3,1E0,1E0,1E0,-2.5236995E-3,1E0,-8.901795E-3,1E0,5.845483E-3,-2.5470904E-3,-8.744743E-3,1E0,5.643159E-3,1E0,1E0,1E0,-2.7721918E-3,1E0,1E0,1E0,1E0,-5.251254E-3,-1.1991209E-4,1E0,1E0,-3.0658909E-3,2.3662369E-3,-7.245069E-3,-4.4315434E-3,-1.6761605E-3,-5.7875947E-3,5.0034486E-3,-1.9667894E-3,4.275638E-3,-4.2532402E-4,1.1149843E-3,5.246668E-3,4.273295E-3,-1.7961061E-4,-1.4474505E-3,2.3185567E-3],"split_indices":[822,930,503,840,265,768,587,665,0,0,0,929,50,277,365,622,0,1043,0,460,0,230,190,0,0,704,0,801,0,265,0,375,0,1070,1009,612,0,0,0,366,0,0,0,184,0,585,1074,974,0,612,206,494,888,0,0,90,580,0,0,0,0,0,0,0,0,0,0,0,0,0,0,0,0],"split_type":[0,0,0,0,0,0,0,0,0,0,0,0,0,0,0,0,0,0,0,0,0,0,0,0,0,0,0,0,0,0,0,0,0,0,0,0,0,0,0,0,0,0,0,0,0,0,0,0,0,0,0,0,0,0,0,0,0,0,0,0,0,0,0,0,0,0,0,0,0,0,0,0,0],"sum_hessian":[4.22E2,8.5E1,3.37E2,7.4E1,1.1E1,1.92E2,1.45E2,6.7E1,7E0,6E0,5E0,1.45E2,4.7E1,1.37E2,8E0,6.1E1,6E0,1.38E2,7E0,4.3E1,4E0,1.3E1,1.24E2,4E0,4E0,5.7E1,4E0,1.34E2,4E0,3.8E1,5E0,8E0,5E0,1.7E1,1.07E2,5.3E1,4E0,1.3E2,4E0,3.3E1,5E0,4E0,4E0,1.3E1,4E0,9.9E1,8E0,4.9E1,4E0,1.17E2,1.3E1,2.3E1,1E1,7E0,6E0,8.8E1,1.1E1,4E0,4E0,3.9E1,1E1,1.08E2,9E0,9E0,4E0,4E0,1.9E1,4E0,6E0,8.3E1,5E0,6E0,5E0],"tree_param":{"num_deleted":"0","num_feature":"1163","num_nodes":"73","size_leaf_vector":"1"}},{"base_weights":[7.462476E-2,-3.4597245E-1,6.342736E-1,-6.020604E-1,5.574682E-1,5.702053E-1,1.3717837E0,-7.8409207E-1,5.2480686E-2,3.978842E-1,1.4880414E0,1.4309627E-1,7.2494745E-1,3.5762999E-3,1.7877197E0,-8.5378516E-1,3.3452834E-3,1.8440773E-1,-4.5896256E-3,-4.7877237E-2,6.227929E-1,4.7485633E-3,9.849652E-3,2.9430327E-1,-3.5064276E-3,1.0810863E0,6.0066766E-1,1.07280165E-2,6.3939923E-3,-9.286771E-1,3.1747576E-3,2.9348946E-1,-3.5359235E-3,-2.602732E-1,1.9956962E-3,8.468356E-1,1.8385775E-1,-0E0,7.295066E-1,1.2215391E0,1.8850021E-4,5.416818E-1,8.131711E-3,-1.0341405E0,1.9740547E-1,3.9221752E-1,-2.0916562E-3,-2.751639E-3,1.1410936E-3,1.127457E0,6.237965E-4,-8.421203E-4,4.047842E-3,-1.4618163E-1,3.6521396E-3,5.263108E-1,6.4562163E-3,1.0234652E0,1.636543E0,4.689188E-1,1.2712919E0,-1.1306291E0,-2.9272604E-1,2.4712137E-3,-3.481218E-5,4.8390546E-1,-9.043741E-4,1.332926E0,2.6177128E-3,2.0514013E-2,-2.7131941E-3,1.7241221E-3,3.1881388E-3,8.40363E-1,8.486835E-3,1.0821752E-2,4.599701E-3,5.2453506E-1,-6.1082107E-4,2.9911578E-3,9.465995E-3,-6.107499E-3,3.1713294E-4,1.4649885E-5,-5.5308347E-3,3.5309198E-3,5.8305525E-4,7.976689E-3,4.1292435E-3,2.6615218E-3,-1.287311E-3,2.1389439E-3,5.365215E-3,2.458955E-4,3.0175599E-3],"categories":[],"categories_nodes":[],"categories_segments":[],"categories_sizes":[],"default_left":[0,0,0,0,0,0,0,0,0,0,0,0,0,0,0,0,0,0,0,0,0,0,0,0,0,0,0,0,0,0,0,0,0,0,0,0,0,0,0,0,0,0,0,0,0,0,0,0,0,0,0,0,0,0,0,0,0,0,0,0,0,0,0,0,0,0,0,0,0,0,0,0,0,0,0,0,0,0,0,0,0,0,0,0,0,0,0,0,0,0,0,0,0,0,0],"id":17,"left_children":[1,3,5,7,9,11,13,15,17,19,21,23,25,-1,27,29,-1,31,-1,33,35,-1,-1,37,-1,39,41,-1,-1,43,-1,45,-1,47,-1,49,51,53,55,57,-1,59,-1,61,63,65,-1,-1,-1,67,-1,-1,-1,69,-1,71,-1,73,75,77,79,81,83,-1,-1,85,-1,87,-1,89,-1,-1,-1,91,-1,-1,-1,93,-1,-1,-1,-1,-1,-1,-1,-1,-1,-1,-1,-1,-1,-1,-1,-1,-1],"loss_changes":[1.0481639E2,5.8825882E1,8.791046E0,2.3667603E1,8.116123E0,1.1556683E1,3.7887707E0,1.5780045E1,5.4741206E0,4.872765E0,1.6730156E0,6.0005827E0,5.5102386E0,0E0,1.1001987E0,1.6595543E1,0E0,3.6920552E0,0E0,1.5275247E0,3.056017E0,0E0,0E0,5.094858E0,0E0,4.742077E0,5.546898E0,0E0,0E0,1.6846642E1,0E0,2.4106848E0,0E0,1.611917E0,0E0,4.157998E0,2.5133271E0,2.6169703E0,1.6196089E0,2.0048523E0,0E0,4.6330223E0,0E0,9.0849E0,7.7462745E-1,1.615407E0,0E0,0E0,0E0,1.6505661E0,0E0,0E0,0E0,1.3726026E0,0E0,1.4131427E-1,0E0,2.127945E0,2.9880123E0,2.7714577E0,3.0714636E0,1.2483795E1,3.7229803E0,0E0,0E0,2.0546513E0,0E0,1.1452637E0,0E0,2.0423505E0,0E0,0E0,0E0,1.3756943E0,0E0,0E0,0E0,2.8000774E0,0E0,0E0,0E0,0E0,0E0,0E0,0E0,0E0,0E0,0E0,0E0,0E0,0E0,0E0,0E0,0E0,0E0],"parents":[2147483647,0,0,1,1,2,2,3,3,4,4,5,5,6,6,7,7,8,8,9,9,10,10,11,11,12,12,14,14,15,15,17,17,19,19,20,20,23,23,25,25,26,26,29,29,31,31,33,33,35,35,36,36,37,37,38,38,39,39,41,41,43,43,44,44,45,45,49,49,53,53,55,55,57,57,58,58,59,59,60,60,61,61,62,62,65,65,67,67,69,69,73,73,77,77],"right_children":[2,4,6,8,10,12,14,16,18,20,22,24,26,-1,28,30,-1,32,-1,34,36,-1,-1,38,-1,40,42,-1,-1,44,-1,46,-1,48,-1,50,52,54,56,58,-1,60,-1,62,64,66,-1,-1,-1,68,-1,-1,-1,70,-1,72,-1,74,76,78,80,82,84,-1,-1,86,-1,88,-1,90,-1,-1,-1,92,-1,-1,-1,94,-1,-1,-1,-1,-1,-1,-1,-1,-1,-1,-1,-1,-1,-1,-1,-1,-1],"split_conditions":[1E0,1E0,1E0,1E0,1E0,1E0,1E0,1E0,1E0,1E0,1E0,1E0,1E0,3.5762999E-3,1E0,1E0,3.3452834E-3,1E0,-4.5896256E-3,1E0,1E0,4.7485633E-3,9.849652E-3,1E0,-3.5064276E-3,1E0,1E0,1.07280165E-2,6.3939923E-3,1E0,3.1747576E-3,1E0,-3.5359235E-3,1E0,1.9956962E-3,1E0,1E0,1E0,1E0,1E0,1.8850021E-4,1E0,8.131711E-3,1E0,1E0,1E0,-2.0916562E-3,-2.751639E-3,1.1410936E-3,1E0,6.237965E-4,-8.421203E-4,4.047842E-3,1E0,3.6521396E-3,1E0,6.4562163E-3,1E0,1E0,1E0,1E0,1E0,1E0,2.4712137E-3,-3.481218E-5,1E0,-9.043741E-4,1E0,2.6177128E-3,1E0,-2.7131941E-3,1.7241221E-3,3.1881388E-3,1E0,8.486835E-3,1.0821752E-2,4.599701E-3,1E0,-6.1082107E-4,2.9911578E-3,9.465995E-3,-6.107499E-3,3.1713294E-4,1.4649885E-5,-5.5308347E-3,3.5309198E-3,5.8305525E-4,7.976689E-3,4.1292435E-3,2.6615218E-3,-1.287311E-3,2.1389439E-3,5.365215E-3,2.458955E-4,3.0175599E-3],"split_indices":[769,768,127,888,265,190,764,349,913,691,79,1055,477,0,691,26,0,134,0,133,1030,0,0,316,0,733,441,0,0,631,0,50,0,662,0,207,868,48,372,142,0,668,0,498,531,1089,0,0,0,477,0,0,0,790,0,1086,0,407,1078,630,633,623,1055,0,0,247,0,894,0,142,0,0,0,374,0,0,0,43,0,0,0,0,0,0,0,0,0,0,0,0,0,0,0,0,0],"split_type":[0,0,0,0,0,0,0,0,0,0,0,0,0,0,0,0,0,0,0,0,0,0,0,0,0,0,0,0,0,0,0,0,0,0,0,0,0,0,0,0,0,0,0,0,0,0,0,0,0,0,0,0,0,0,0,0,0,0,0,0,0,0,0,0,0,0,0,0,0,0,0,0,0,0,0,0,0,0,0,0,0,0,0,0,0,0,0,0,0,0,0,0,0,0,0],"sum_hessian":[4.45E2,2.54E2,1.91E2,1.98E2,5.6E1,1.76E2,1.5E1,1.55E2,4.3E1,4.8E1,8E0,4.7E1,1.29E2,6E0,9E0,1.48E2,7E0,3.8E1,5E0,1.6E1,3.2E1,4E0,4E0,4E1,7E0,3.3E1,9.6E1,5E0,4E0,1.41E2,7E0,3.4E1,4E0,1.1E1,5E0,2.1E1,1.1E1,2.4E1,1.6E1,2.9E1,4E0,9.1E1,5E0,1.29E2,1.2E1,3E1,4E0,7E0,4E0,1.5E1,6E0,7E0,4E0,2E1,4E0,1.2E1,4E0,2E1,9E0,8.3E1,8E0,1.14E2,1.5E1,5E0,7E0,2.6E1,4E0,1.1E1,4E0,1.4E1,6E0,5E0,7E0,1.6E1,4E0,5E0,4E0,7.6E1,7E0,4E0,4E0,1.06E2,8E0,1.1E1,4E0,1.6E1,1E1,7E0,4E0,5E0,9E0,6E0,1E1,1.1E1,6.5E1],"tree_param":{"num_deleted":"0","num_feature":"1163","num_nodes":"95","size_leaf_vector":"1"}},{"base_weights":[-4.433531E-3,-4.689582E-1,3.29683E-1,-6.6033715E-1,5.5642164E-1,-1.9142233E-1,4.9580434E-1,-7.267015E-1,3.6549E-3,8.4928113E-1,-0E0,-5.517946E-1,3.387113E-1,4.435136E-1,1.5506535E0,-1.170616E0,-5.9383655E-1,6.488856E-1,6.260877E-3,-3.5038749E-3,3.475051E-3,-8.638832E-1,9.33298E-2,1.4464632E-1,6.5451437E-3,3.1602925E-1,7.9689765E-1,1.1205126E-2,4.7452394E-3,-1.065468E0,-9.469292E-3,-6.5901935E-1,1.3257959E-3,9.379086E-1,-0E0,-2.9664126E-1,-1.4640387E0,1.8165031E-3,-1.3407306E-3,-2.0080219E-1,5.310436E-1,3.6944595E-1,-3.2779651E-3,9.4769776E-1,-4.8436786E-4,-9.002946E-1,-8.435154E-3,-4.768135E-1,-1.0137655E0,2.9036372E-3,5.95234E-3,-1.6315241E-3,-4.6201893E-3,-1.9008155E0,-2.7264208E-3,-2.83502E-3,2.0905193E-3,5.3586755E-3,-1.9323657E-5,3.230222E-1,5.787528E-3,7.843223E-1,9.42741E-3,-1.0516002E0,-2.1151942E-3,-5.4300255E-1,1.8710095E-3,-1.2663757E0,-2.4126992E-1,1.8169677E-3,-1.5562343E-3,-1.11023225E-2,-7.573296E-3,2.723435E-1,5.677713E-3,5.3515303E-1,1.2672933E0,-4.5756665E-3,-7.3755905E-3,-3.6763232E-3,-1.539338E-3,-5.213966E-3,-8.120998E-3,-5.588834E-3,2.2594994E-3,1.1367351E-3,6.1551235E-3,3.6938663E-3,5.681109E-4,4.8349933E-3,9.047514E-3],"categories":[],"categories_nodes":[],"categories_segments":[],"categories_sizes":[],"default_left":[0,0,0,0,0,0,0,0,0,0,0,0,0,0,0,0,0,0,0,0,0,0,0,0,0,0,0,0,0,0,0,0,0,0,0,0,0,0,0,0,0,0,0,0,0,0,0,0,0,0,0,0,0,0,0,0,0,0,0,0,0,0,0,0,0,0,0,0,0,0,0,0,0,0,0,0,0,0,0,0,0,0,0,0,0,0,0,0,0,0,0],"id":18,"left_children":[1,3,5,7,9,11,13,15,-1,17,19,21,23,25,27,29,31,33,-1,-1,-1,35,37,39,-1,41,43,-1,-1,45,-1,47,-1,49,-1,51,53,-1,-1,55,57,59,-1,61,-1,63,-1,65,67,-1,-1,69,-1,71,-1,-1,-1,-1,-1,73,-1,75,-1,77,-1,79,-1,81,83,-1,-1,-1,-1,85,-1,87,89,-1,-1,-1,-1,-1,-1,-1,-1,-1,-1,-1,-1,-1,-1],"loss_changes":[6.864326E1,3.6368633E1,2.2290934E1,1.4466072E1,4.7669115E0,1.1900213E1,1.0528004E1,8.578766E0,0E0,1.3038244E0,4.968036E0,7.541273E0,4.5874405E0,8.266869E0,3.303339E0,2.1469994E0,6.4946632E0,2.4892316E0,0E0,0E0,0E0,8.35602E0,1.1984155E0,2.8543766E0,0E0,7.116194E0,6.697193E0,0E0,0E0,2.7246437E0,0E0,6.7511444E0,0E0,6.054754E-1,0E0,2.3480444E0,4.549923E0,0E0,0E0,2.55176E0,3.0097454E0,4.5999928E0,0E0,6.0817757E0,0E0,1.5740051E0,0E0,4.039175E0,6.8894806E0,0E0,0E0,1.0354613E0,0E0,3.5498047E-1,0E0,0E0,0E0,0E0,0E0,4.921732E0,0E0,4.12763E0,0E0,7.13686E-1,0E0,2.8794212E0,0E0,1.7784233E0,5.6343193E0,0E0,0E0,0E0,0E0,4.859791E0,0E0,1.9897552E0,1.5658417E0,0E0,0E0,0E0,0E0,0E0,0E0,0E0,0E0,0E0,0E0,0E0,0E0,0E0,0E0],"parents":[2147483647,0,0,1,1,2,2,3,3,4,4,5,5,6,6,7,7,9,9,10,10,11,11,12,12,13,13,14,14,15,15,16,16,17,17,21,21,22,22,23,23,25,25,26,26,29,29,31,31,33,33,35,35,36,36,39,39,40,40,41,41,43,43,45,45,47,47,48,48,51,51,53,53,59,59,61,61,63,63,65,65,67,67,68,68,73,73,75,75,76,76],"right_children":[2,4,6,8,10,12,14,16,-1,18,20,22,24,26,28,30,32,34,-1,-1,-1,36,38,40,-1,42,44,-1,-1,46,-1,48,-1,50,-1,52,54,-1,-1,56,58,60,-1,62,-1,64,-1,66,68,-1,-1,70,-1,72,-1,-1,-1,-1,-1,74,-1,76,-1,78,-1,80,-1,82,84,-1,-1,-1,-1,86,-1,88,90,-1,-1,-1,-1,-1,-1,-1,-1,-1,-1,-1,-1,-1,-1],"split_conditions":[1E0,1E0,1E0,1E0,1E0,1E0,1E0,1E0,3.6549E-3,1E0,1E0,1E0,1E0,1E0,1E0,1E0,1E0,1E0,6.260877E-3,-3.5038749E-3,3.475051E-3,1E0,1E0,1E0,6.5451437E-3,1E0,1E0,1.1205126E-2,4.7452394E-3,1E0,-9.469292E-3,1E0,1.3257959E-3,1E0,-0E0,1E0,1E0,1.8165031E-3,-1.3407306E-3,1E0,1E0,1E0,-3.2779651E-3,1E0,-4.8436786E-4,1E0,-8.435154E-3,1E0,1E0,2.9036372E-3,5.95234E-3,1E0,-4.6201893E-3,1E0,-2.7264208E-3,-2.83502E-3,2.0905193E-3,5.3586755E-3,-1.9323657E-5,1E0,5.787528E-3,1E0,9.42741E-3,1E0,-2.1151942E-3,1E0,1.8710095E-3,1E0,1E0,1.8169677E-3,-1.5562343E-3,-1.11023225E-2,-7.573296E-3,1E0,5.677713E-3,1E0,1E0,-4.5756665E-3,-7.3755905E-3,-3.6763232E-3,-1.539338E-3,-5.213966E-3,-8.120998E-3,-5.588834E-3,2.2594994E-3,1.1367351E-3,6.1551235E-3,3.6938663E-3,5.681109E-4,4.8349933E-3,9.047514E-3],"split_indices":[277,930,397,25,1055,768,381,601,0,596,510,840,184,390,374,477,58,1132,0,0,0,531,1028,366,0,177,522,0,0,376,0,106,0,1086,0,1055,1073,0,0,392,524,767,0,273,0,822,0,397,306,0,0,706,0,904,0,0,0,0,0,574,0,476,0,580,0,1114,0,190,477,0,0,0,0,230,0,602,123,0,0,0,0,0,0,0,0,0,0,0,0,0,0],"split_type":[0,0,0,0,0,0,0,0,0,0,0,0,0,0,0,0,0,0,0,0,0,0,0,0,0,0,0,0,0,0,0,0,0,0,0,0,0,0,0,0,0,0,0,0,0,0,0,0,0,0,0,0,0,0,0,0,0,0,0,0,0,0,0,0,0,0,0,0,0,0,0,0,0,0,0,0,0,0,0,0,0,0,0,0,0,0,0,0,0,0,0],"sum_hessian":[4.42E2,1.85E2,2.57E2,1.56E2,2.9E1,6.2E1,1.95E2,1.49E2,7E0,1.9E1,1E1,3.7E1,2.5E1,1.86E2,9E0,3.4E1,1.15E2,1.3E1,6E0,5E0,5E0,2.5E1,1.2E1,2.1E1,4E0,1.37E2,4.9E1,4E0,5E0,3E1,4E0,1.07E2,8E0,9E0,4E0,1.3E1,1.2E1,7E0,5E0,1.1E1,1E1,1.3E2,7E0,4.2E1,7E0,2.4E1,6E0,7.1E1,3.6E1,4E0,5E0,9E0,4E0,8E0,4E0,7E0,4E0,5E0,5E0,1.23E2,7E0,3.6E1,6E0,1.8E1,6E0,6.6E1,5E0,2.7E1,9E0,4E0,5E0,4E0,4E0,1.16E2,7E0,2.4E1,1.2E1,1.4E1,4E0,3.6E1,3E1,1.7E1,1E1,4E0,5E0,1.11E2,5E0,1.6E1,8E0,8E0,4E0],"tree_param":{"num_deleted":"0","num_feature":"1163","num_nodes":"91","size_leaf_vector":"1"}},{"base_weights":[2.3964462E-3,-8.410471E-1,2.3239699E-1,-1.1184918E0,7.7078867E-1,2.9977226E-1,-7.422102E-1,-1.6887945E0,-8.509536E-1,-2.5671527E-3,9.374547E-3,2.3516315E-1,1.1252416E0,-1.1179342E0,4.1139526E-3,-1.9158897E0,-2.5706883E-3,-9.7661644E-1,1.5503458E-3,2.6271248E-1,-8.162578E-3,5.477622E-1,1.5114967E0,-7.896903E-3,-6.858345E-1,-2.2013865E0,-6.7525525E-3,-1.3187298E0,-6.118895E-1,2.2920693E-1,8.752086E-3,-0E0,4.848703E-3,1.1317515E-2,1.146994E0,-4.6235905E-3,-2.3207366E-3,-1.2586266E-2,-8.920545E-3,-1.5394484E0,-2.2503193E-3,-3.9829245E-1,-7.859344E-3,2.0248078E-1,8.093572E-3,4.2564794E-3,7.3334603E-3,-1.7375731E0,-3.7603779E-3,7.452787E-4,-5.9930277E-1,-3.833428E-2,3.7210065E-1,-6.915187E-3,-1.0529686E-2,-4.032942E-3,-2.6954507E-4,1.859421E-4,-5.7836985E-3,2.295641E-3,-2.5704491E-3],"categories":[],"categories_nodes":[],"categories_segments":[],"categories_sizes":[],"default_left":[0,0,0,0,0,0,0,0,0,0,0,0,0,0,0,0,0,0,0,0,0,0,0,0,0,0,0,0,0,0,0,0,0,0,0,0,0,0,0,0,0,0,0,0,0,0,0,0,0,0,0,0,0,0,0,0,0,0,0,0,0],"id":19,"left_children":[1,3,5,7,9,11,13,15,17,-1,-1,19,21,23,-1,25,-1,27,-1,29,-1,31,33,-1,35,37,-1,39,41,43,-1,-1,-1,-1,45,-1,-1,-1,-1,47,-1,49,-1,51,-1,-1,-1,53,-1,-1,55,57,59,-1,-1,-1,-1,-1,-1,-1,-1],"loss_changes":[8.0689545E1,3.9960033E1,2.146454E1,1.1257683E1,1.8783642E1,1.6186352E1,1.2523336E1,6.129669E0,7.686592E0,0E0,0E0,1.4547621E1,4.6766148E0,3.1141586E0,0E0,2.65374E0,0E0,5.636883E0,0E0,1.37583275E1,0E0,2.0656288E0,3.0494938E0,0E0,3.242736E-1,9.2224884E-1,0E0,4.3870926E0,4.5112867E0,9.99583E0,0E0,0E0,0E0,0E0,5.4394054E-1,0E0,0E0,0E0,0E0,2.643242E0,0E0,2.1475546E0,0E0,1.1020928E1,0E0,0E0,0E0,1.3925858E0,0E0,0E0,1.5186133E0,9.480835E0,1.221221E1,0E0,0E0,0E0,0E0,0E0,0E0,0E0,0E0],"parents":[2147483647,0,0,1,1,2,2,3,3,4,4,5,5,6,6,7,7,8,8,11,11,12,12,13,13,15,15,17,17,19,19,21,21,22,22,24,24,25,25,27,27,28,28,29,29,34,34,39,39,41,41,43,43,47,47,50,50,51,51,52,52],"right_children":[2,4,6,8,10,12,14,16,18,-1,-1,20,22,24,-1,26,-1,28,-1,30,-1,32,34,-1,36,38,-1,40,42,44,-1,-1,-1,-1,46,-1,-1,-1,-1,48,-1,50,-1,52,-1,-1,-1,54,-1,-1,56,58,60,-1,-1,-1,-1,-1,-1,-1,-1],"split_conditions":[1E0,1E0,1E0,1E0,1E0,1E0,1E0,1E0,1E0,-2.5671527E-3,9.374547E-3,1E0,1E0,1E0,4.1139526E-3,1E0,-2.5706883E-3,1E0,1.5503458E-3,1E0,-8.162578E-3,1E0,1E0,-7.896903E-3,1E0,1E0,-6.7525525E-3,1E0,1E0,1E0,8.752086E-3,-0E0,4.848703E-3,1.1317515E-2,1E0,-4.6235905E-3,-2.3207366E-3,-1.2586266E-2,-8.920545E-3,1E0,-2.2503193E-3,1E0,-7.859344E-3,1E0,8.093572E-3,4.2564794E-3,7.3334603E-3,1E0,-3.7603779E-3,7.452787E-4,1E0,1E0,1E0,-6.915187E-3,-1.0529686E-2,-4.032942E-3,